{"biases": [[[-0.6887085778148513], [-0.09752311620873272], [-1.6723408923671637], [0.8827393498108871], [-0.6289074532813306], [0.973267364369001], [-0.7898106783989208], [-1.0135646270411762], [0.7260218248095738], [-1.2391033667036104], [-0.09881671211982787], [0.15974939765062998], [-0.697726242990073], [0.14626914582379172], [0.5087621346561264], [-0.8221886960481625], [-2.514451329465549], [-1.363903626150944], [-1.8973693094556991], [1.0705834948040807]], [[-0.48846930906619646]]], "cost": "CrossEntropyCost", "sizes": [617, 20, 1], "weights": [[[-0.021987481622669638, -0.05636765864813287, 0.0381645452476, 0.040834567890378204, -0.0061827727685825245, -0.016143270555267965, 0.02545293679563513, -0.03813067389510783, -0.01882525499489413, 0.029734812946504877, -0.025209251183344644, -0.02140484407734582, 0.019930239528280037, 0.008256048672610136, 0.012744235861077518, -0.001240531433336434, -0.011480927431165177, -0.034172773752403116, -0.014077622861693301, -0.012926496014408616, -0.00250025600959836, -0.04674845628981049, 0.039952627003194324, -0.01087951197281337, -0.0722784257064667, 0.013701484991531943, -0.01567293791125486, 0.03570440463417505, -0.019843273678564755, 0.016551690588387888, 0.022428831710465006, -0.027266551050794518, -0.05229224561350239, 0.0601922719852956, 0.019054376117770926, 0.006578847825670462, -0.0684121275917592, 0.020625199845569774, 0.03144804941452445, 0.005325569736464114, -0.004500468464148874, -0.05789037700794034, 0.014897929429602245, 0.00208868881621227, 0.017225415521312112, -0.023661973252673184, 0.009113453754362509, -0.018411761273532678, 0.02118591563807855, 0.014206508162452227, -0.02595703146711456, 0.07614495761525515, 0.005433230755254467, -0.05011728926849055, 0.05423699522971251, -0.09108128046748962, -0.03599529442454806, -0.025754498799658403, 0.05167979018321414, -0.04670273170347012, 0.024107671018630622, -0.05121945869954281, 0.014651175685263957, 0.004023312783189235, 0.03357620807471713, 0.02841522506698866, 0.0688710039250413, 0.025608168576562604, -0.016297146915250332, -0.05908870602628875, -0.02811903322296452, 0.057636791101032675, -0.05484332327623016, 0.007110888040999001, 0.08331913694406186, 0.01630861961278284, 0.04156622757430237, -0.017125321030576, 0.026809849092952212, -0.006289039771355829, 0.004359686810042378, -0.09165523155789151, -0.03202216586433762, 0.010235751811897516, 0.04471327952064238, 0.05278492083984236, 0.003451475198459896, 0.055011792801196384, -0.040000985861802466, 0.03733529487981085, -0.03988544307847491, -0.016599996827805663, -0.01309083642067065, 0.023805542392485203, 0.058266703245145796, 0.04132829848342267, 0.042252020126331766, 0.0145574037646215, -0.007363902542434465, -0.03940820959300095, 0.039212788928019895, 0.026705181636649405, -0.0782659046185272, -0.0099321748640097, -0.02461293074545724, -0.0430673188743946, -0.032226671326871466, -0.0026480122969645085, 0.01622653381023943, -0.05573898732981202, -0.018467602631432455, 0.017771854466904678, 0.01365377338939718, 0.03320528508800997, 0.033917107901981165, -0.04886176205481599, 0.06540172237913472, 0.006740207359837829, 0.018816338848090138, 0.046756334792160424, 0.012402862418284089, -0.022856821655264987, 0.03629287522191777, -0.032640394113746155, 0.026399063051800033, -0.0216362637950144, 0.019982850442669585, 0.011696168953374308, 0.0002512954861483114, 0.018082077551331326, 0.02184819786141917, -0.012046115645938655, -0.007694420055665717, -0.051500799815122594, 0.07924263841673207, 0.01468141837616514, -0.013542287134485263, -0.07242989583122435, -0.0634225600251726, 0.011995884185772307, -0.004920538248925502, -0.034125711631738324, -0.003711344230732408, 0.03932901163251726, -0.07088372845451969, -0.028947058087089382, -0.029926082658206433, 0.017830057020319413, -0.041423895203889886, 0.03866028578618305, -0.025565040011025088, 0.03035052841030041, -0.021892728636765384, -0.0008584281457807402, -0.025842589837973513, 0.006473316574603146, 0.020750854459992637, -0.05535850757243094, -0.0029673369664350783, 0.03288688242261582, 0.009769577689374467, -0.03455297475825234, -0.0021874681232590377, 0.03445042845542548, -0.005340726970253612, 0.03255905842896324, 0.01635286159755651, 0.06376500024080861, 0.017936260437557628, 0.006915113768230825, 0.03584337327910823, 0.03235542696749203, -0.033323417669670445, -0.0021256853271272003, -0.008702034722661596, 0.03882895434589667, 0.01667156118425189, -0.027258094203010078, -0.06897544432393744, -0.0485591353662528, 0.0695582691316286, 0.00025848155007928005, -0.009017352373610694, 0.01232679365295202, -0.03035333252827633, -0.02643999574101901, 0.032580546260800924, 0.022118397727356885, -0.010476051288928397, -0.05724429123124293, -0.05547139543845708, -0.03946284855405811, -0.05696086868348914, -0.04246467509590114, 0.03512523472317311, 0.02670634165707693, 0.026003956910675603, -0.009173437760750136, 0.012663766513678572, -0.09056202206321957, 0.003145076503626155, 0.03489281376290658, 0.08052868561613163, 0.017514707000474847, -0.01921459527292178, -0.02648484798180029, 0.005326392763511742, 0.05486251300346535, 0.009607742806449304, 0.005477688673689387, 0.032212962747483545, -0.0562938308011192, 0.00761643883951252, -0.0831827572937017, -0.008372373086372337, 0.045863677537962576, 0.05735903523854263, 0.051988716433113036, 0.013914262183936345, -0.056070035912871775, 0.032571261078775504, 0.06329882443152866, -0.08685347195391106, 0.06372842679357846, 0.011212129291617608, 0.03615491834432557, -0.011568090246608558, 0.09379761623308172, 0.04574988695439216, 0.00030386094898518897, -0.04214051458873128, -0.05903906609397263, -0.03496554241464898, -0.06662154426401855, -0.005115557274240623, 0.01879561032128597, -0.07285929682797576, 0.008255194255749354, -0.0572432817980572, 0.02802982307536282, -0.02902080440832064, -0.005548081035809797, -0.03904781313155013, -0.015083507629988545, -0.00793073033163048, -0.006240700068374353, -0.040187943944242015, -0.04098596079576993, -0.025080222556908928, 0.006251013272996456, 0.03644061300687374, 0.0033470216729561534, -0.05482868844352316, 0.058316938316997205, -0.013383367397429251, -0.08235105968432857, -0.004750036474666132, 0.029380400003353936, 0.00452624241575736, -0.0003174166017321609, -0.05086439243861863, -0.007959968748422051, -0.00714235451546339, -0.012173162183840196, -0.044009183467820595, -0.024034106797374583, 0.011419042335426672, -0.004525771944226396, -0.05765111931774492, -0.08858903183718295, -0.01381124364607196, 0.014070758355499067, 0.05472780791508207, -0.03406311694491157, 0.005149046230280659, -0.01255470875243114, 0.025946582219937852, -0.032696409335405574, -0.030978007968218084, 0.02591323618182952, 0.0429733065567247, 0.008925001808511359, 0.036044513818039366, 0.04434891018873168, 0.043092049169429575, -0.007010468480610937, 0.025856559452985983, 0.04876262541755443, -0.032423691108122744, 0.07525845293448306, 0.05328284797074811, -0.017959362917748082, -0.003712384787894788, -0.019995018875690593, -0.020886463119933814, -0.031671659911172524, 0.03487694929507876, -0.06427984401446443, 0.06867665768432588, 0.03880347191761249, 0.030919085540843327, -0.048856263477211184, -0.0017112074908513803, -0.05286421153080157, -0.08291096038920914, -0.03921651382685544, -0.021979597685053604, 0.019828347104092647, -0.006943697699080338, 0.043776587630431955, -0.007872847608913871, -0.06487471123720923, -0.013759260235339774, 0.06725021611093186, 0.04194870998557065, -0.02561954459495831, 0.08086429571478036, 0.029957264178111752, 0.03337437187592202, -0.09283473619309401, -0.013505697008189198, 0.06645255284826312, 0.034121062443060034, -0.012539839510042377, -0.004291328993642188, -0.02884604447238579, -0.03314696992984121, 0.02860069255164966, -0.024400049234160864, -0.008168123792755411, 0.02602843709225606, 0.02783328163282365, 0.031238223365278196, 0.01722576968154204, -0.009674160249244711, 0.02945336291265336, -0.05031690359419037, 0.0189223339672846, -0.05820366808355937, -0.00745837559031176, 0.00311491404812481, 0.012518194688976553, -0.007872245681517268, 0.023742465733071188, -0.04956841463478643, -0.08006009204100661, 0.01177394263833886, -0.02578304248560734, 0.006595538391308573, 0.00580667048249771, 0.04351653721828344, 0.00522734640224756, 0.044786457019417414, 0.10466188160027327, 0.007686337920905048, 0.007149694715886649, 0.05562541632051147, 0.017064303032145598, 0.03882439507589009, 0.02593883457703583, -0.07682963544865593, -0.003125957832094662, 0.05222058791522481, 0.10107826881339152, 0.009840099610991757, 0.028344983476071117, 0.004623572917449916, 0.06582934307173048, -0.014537995598632196, -0.03235178491769352, 0.020094481239790307, -0.004921254258504448, -0.0042169947226499095, -0.04736570305443415, -0.021485434048041072, 0.07260750375409007, 0.05744737148325038, -0.0033955564188950112, 0.004810437169197002, 0.009576042814100839, 0.011452187789487756, -0.04205638647855032, -0.0396081536860364, 0.008037532745619722, 0.014651809998963386, -0.009832062500406927, 0.056678087000564925, 0.02763794975537741, -0.04528805623539938, -0.018459110489357482, -0.038461497284878694, -0.01730753894664512, -0.06532436906572814, 0.012578852954693619, -0.025166119693665567, -0.0124933301390513, 0.007428318172675222, 0.003029773533046246, 0.009942245857600094, -0.0500966414683644, 0.022633529308696616, -0.016229439614083945, 0.0470667406355865, -0.01653960922352176, 0.04909199037698414, -0.011222831384171052, -0.010677617861068573, -0.05171048976064182, -0.017936347712014418, -0.0013085471536945703, -0.0017657867948114143, -0.01731133995802367, 0.018392377590212994, -0.11485809862108444, 0.060682418595662375, 0.020487247970804635, -0.02954954779364149, -0.04327072272296789, -0.030677206656082447, -0.07448223101409712, -0.019727419325823174, -0.05229131357651503, 0.017105024994616795, -0.004642082763277224, -0.07084596668302438, -0.005221593917835694, -0.03451305682263135, 0.07128937552214085, -0.015421082853630719, 0.002565558034916971, -0.05605975625060148, 0.014441338396246547, -0.06381152820319079, 0.023214530286899196, -0.05250306850543395, -0.015656854389051282, 0.02726934811371637, 0.022740935691254918, 0.07778257273674552, 0.04965433713232692, -0.02121984889491134, -0.019730457302824522, -0.03760126633408276, 0.008825647597448931, 0.013611068658988023, 0.11968420668279735, 0.03715571132719752, 0.05965718869581783, -0.02277719026975433, 0.0005803210963539302, -0.010199633300079237, 0.01903143500461081, 0.006614347521247501, 0.0482279522033398, -0.055480939265844596, -0.07505061485822725, 0.017439824418679802, -0.00021649824639914748, 0.028989381043293655, -0.01903274766095284, 0.007607794005189302, -0.04997301730024982, 0.02543716743173915, 0.07019636393201414, -0.014350870150017818, 0.039481189247712614, -0.06754206119676834, -0.054311696979961514, 0.04027529600462917, 0.004499474079202159, 0.05930186938374352, -0.061174191121376065, -0.08064096487952606, 0.03574949408227577, -0.04865490953853682, 0.009759380957984303, 0.03185398962213812, 0.02954551294356455, 0.02020519120974532, 0.05428178884139776, 0.018381840978714876, 0.010631690090984384, -0.03367427354422148, -0.015759426289031007, -0.017350105859429504, 0.06288918585515077, 0.052023415531764164, -0.012099119380431057, 0.04499595769046694, -0.04560895699150053, -0.01714449643698349, -0.005521344511561717, -0.05127271042580419, 0.0396755600788282, 0.061903434243665595, 0.07156634523697146, -0.017709133283266145, 0.0037509796114461556, -0.07131116498912535, -0.006748763432075573, -0.00183931952604973, -0.008711426940500039, -0.07224763387017581, 0.05741212702738242, 0.023898643692029195, -0.024309301650889133, -0.02985721839529107, 0.004511869870666156, -0.012605783750992153, -0.006689067318166224, 0.016056236945720004, 0.01481066619664118, -0.02225511309102812, 0.038552245329666945, -0.03549634004317571, -0.020028768582012666, 0.026234053163729558, 0.0038428485956447716, -0.025910482577310334, -0.017494499921478317, -0.043163730080381546, 0.053886218150803716, -0.01306361981435487, 0.004160655793052306, 0.01870027473277939, 0.043557855191262304, 0.028526519123776774, 0.050047782636923, -0.04781193853586968, -0.07279901020774816, 0.024619285148127387, 0.06535302926229676, 0.01945580950411745, 0.060819976188863534, -0.013857939694024088, 0.006241169998815092, -0.0025162362817441456, -0.004350633670206991, 0.046945836394234636, -0.03454334516916173, 0.028053127244072062, 0.00325707289286487, -0.0048067546832006825, 0.021284124228023903, 0.03697474488816133, -0.05831375052151407, 0.030728996194933456, 0.00974157165905922, -0.015830055548558618, -0.047901691817532475, -0.027521701298460315, 0.02038821382228054, 0.027431466331198934, 0.0035685514985002733, -0.02863512094162905, -0.020193227786027244, 0.011188161966264489, -0.012008113504383676, 0.048336107726522574, 0.04129337996694912, -0.03677065243463321, -0.02252563220641189, 0.02721669774314406, -0.04408734234190215, 0.07551620140670705, -0.014056814962293463, 0.00938214612959152, 0.045002191979258054, -0.04542759106412443, -0.019262274463291373, -0.022461914068568265, 0.062788770153609, 0.02639606653028283, -0.026478499197560193, -0.05431999075582795, 0.05900103436281344, -0.003961706308443052, 0.039560103727126476, -0.025353959403220435, 0.018649417437184394, 0.0009082738129332209, -0.039559958011625554, -0.012384509004396404, -0.032155275127976446, -0.05792906252666972, -0.033075165882775266, 0.08210213339950233, -0.07821056301032764, 0.02320528062095406, -0.06902946311927122, 0.006503762639622323, 0.025250222893667212, 0.036498200877727795, 0.00927492672427185, 0.013477339677178079, -0.013020615994715535, 0.00151996729235551, -0.03318945520890334, -0.03837827749695526, -0.049974169785310385, -0.036729503089090246, -0.05354914946445687, 0.03535976581913435, -0.03331375410752041, -0.0026492878620443627, 0.048988718057126304, -0.005600700125917176, 0.02206555657227574, -0.04853001709542388, 0.0011366753652528626, -0.03336884563292279, -0.10947576788918616, 0.004908551957315601, 0.060117876834797086, 0.0193018036421697, 0.002416200985766977, -0.05185516799837967], [0.022431427237867486, 0.0008103866286676049, -0.05739590217325977, -0.05002388920072847, -0.021537999226967683, 0.017591290559170084, 0.024939539447275835, -0.0029905097827334502, -0.06841566371318514, -0.05041317756436033, 0.02506809183529642, 0.052868119485978575, 0.01916412520526614, -0.048850318201684076, 0.029025979497691215, 0.027260313078721003, -0.03822211251449823, 0.018255845743868487, -0.03844321334821005, 0.0070480562984826835, 0.016587679210236017, -0.07207988124259335, -0.02889652310437904, -0.03940503749451006, 0.01947324309615182, 0.02013282153191681, -0.03764932647022053, -0.0038585976545931493, 0.026543958165072785, 0.0034110663952458104, 0.01464410885401397, -0.0045336468336226515, 0.013239794766805186, 0.02988476380193968, -0.010197613393775794, 0.014934009267408302, 0.06896127259496977, 0.023285377244332744, -0.02273086076846223, 0.03946514297594219, -0.0030333273416462444, -0.036026131355375336, 0.020409097890460953, 0.04649949159705927, 0.04040565738016505, -0.06144422542054882, 0.015404443044529266, -0.06530555689202548, -0.026732194972945777, 0.06282267823576898, -0.02984956856938405, -0.026815639878316554, 0.037628883620651435, 0.04786637468945011, 0.006401208010489378, 0.035335806750883623, 0.012196877632521455, 0.0186311599942743, 0.022518764123351766, -0.08456313019440831, -0.029847959004278484, 0.009626386434367269, -0.04399784157715261, -0.022759704566259236, 0.010227486293409967, 0.01667005398108409, 0.003256670704710484, -0.06831297645665185, 0.045355181962110705, -0.0205235915963593, 0.0679910294198285, 0.0886425176449261, 0.09116527564328437, -0.04502601530381123, 0.03309277283509474, -0.015368361879635948, -0.001012091978879894, -0.01448695760191315, 0.024475470318875474, -0.00422492576711153, -0.00519252446442753, 0.02304116880150788, -0.01777331591827128, 0.0715051037476834, -0.009946011976425757, -0.08164345721185347, 0.0026274013495612486, 0.028156018050288233, -0.0015105671228704569, -0.03286116091471701, 0.04192936712477677, 0.03814023357399747, -0.005716048714726215, 0.03860666012624681, -0.04652217952722118, -0.02580607453758527, 0.01448037722958154, 0.04831346863207333, 0.019247509084957988, 0.01875867977277648, -0.0202410929857193, -0.005373977963982212, -0.049453653302091546, 0.00870599439315201, 0.003089545927993563, 0.013823193258064897, 0.012614109049684505, -0.025712091372765505, 0.003988173502835479, 0.0004336666590248589, -0.04336637952129522, -0.013152901002429343, -0.056043579680911754, -0.017014721336349105, 0.12223698144780941, -0.08613672272782953, -0.007419524227287437, -0.05157738140789764, 0.046838615936713256, 0.037342393935570574, -0.047161651280507456, 0.011411463840062362, -0.010768775978363027, -0.016913691299931578, -0.03560571826612283, -0.06855992165783904, -0.023261119849615423, 0.020914236233345845, -0.006433660349568641, -0.01935391259553826, -0.022455946527135652, -0.010194527949923479, 0.03430577442320727, -0.08968839075111523, 0.023971454615754062, 0.013752889649515761, -0.1040780326670755, -0.012164990775100866, -0.06591947711657782, -0.03285378366015594, 0.03282514744180174, -0.04516592415311146, -0.014756365904283412, -0.004157313412158625, 0.013968655435387193, 0.14263216278784513, -0.02261881403100397, 0.0007779348698756133, -0.01738096745261582, 0.01635444919007601, 0.03298164732551934, -0.028847102394610306, 0.01344421641209458, 0.010268423013049031, 0.025923780470284735, -0.029617417915019074, -0.02206235271941584, -0.02004450132717576, -0.017245370106089664, 0.045147535607428325, 0.06457221964025188, -0.06295583653541356, -0.04360136111679731, 0.009308049639714409, 0.04154155426112106, 0.005222857073453356, 0.03558794732671379, 0.03829907042607809, 0.10190970004441767, -0.009980112095069441, 0.019586469047700658, -0.07759699336142824, -0.0017911455970294875, -0.0217250517392329, -0.032405258135204514, -0.04035941505030918, 0.11307285319551985, -0.059115222144894064, 0.027375453396679517, 0.020558679695179643, -0.056889902103695614, 0.008741749382649246, 0.03240929256983365, 0.03882196546296703, -0.011593811577627702, 0.06548355704759087, -0.07035859907964882, 0.004762981936757934, -0.05245584259047423, -0.045288111269354864, 0.006519988097982047, 0.008209454959195292, -0.0201863424838944, -0.0061488048770484876, 0.0034821800007710803, 0.016675966127670517, -0.020875184598792923, -0.04198636132435718, 0.01764727926711986, -0.016468376081942272, -0.027611834827587136, 0.023497470475515193, -0.011969780615648294, -0.0584932189051976, -0.029451613791626252, -0.037591734533092704, 0.04231676406744494, 0.06774837120270275, 0.06660671941017979, -0.022085912030991264, -0.03018387499131361, 0.039444728221746245, -0.03356212617849497, 0.07015348967500219, 0.001047882862226648, 0.02460987850337131, 0.01929068167109069, 0.022224891645341496, 0.0291171736892506, 0.051960397709926394, -0.00025513286973322775, -0.02647325476443031, 0.03455168866995039, -0.047287166875816154, -0.027724785388595054, -0.006862837923889501, -0.05417504398554056, 0.07943442269303724, 0.026576469901252744, -0.016325510081386788, -0.014543875849169025, 0.037103116834602684, -0.08663696035300841, -0.019290455486164208, 0.0008967130901447255, -0.02904460871009406, 0.004982284444083745, -0.013291893891648613, 0.10585445205518171, 0.02764776536469429, 0.02131016160047166, -0.010909734053773856, -0.01282892745560465, -0.016593549318889577, 0.010815551612658816, -0.000955217290689469, 0.0044396367231146275, -0.045777800379690765, -0.03591444103289392, 0.006564412493353295, 0.07839306545697396, 0.05333578168675377, 0.014545672964952135, 0.007451314532761309, 0.06065864911701256, 0.01134930891809347, -0.019034476036559476, 0.0662063818416789, -0.00953569273899528, 0.07826359470187988, 0.041037078990112386, -0.008352606681330522, 0.011240008627828113, 0.061988976872371024, -0.0018024455620655954, 0.0036894951501944342, -0.0308893257044707, 0.04536426187954891, 0.01081937929921527, 0.008675001214268492, 0.07121306791246386, 0.003784377277002009, -0.02519021966494062, -0.014768426601690492, 0.005518478212216394, 0.018284203345402317, 0.019011553566228776, 0.053496141276265965, -0.04358833323339952, -0.06224594639465871, 0.045049600893197095, 0.016702168940425616, 0.08526913409422082, -3.9810117151516515e-05, 0.0038862078951932065, 0.01745033748181707, 0.00779515061765208, -0.06359422720546631, 0.039895359324911256, 0.022574726900213903, 0.03251231588953703, -0.06598129704301234, 0.055072758684910524, 0.018733113515493897, 0.06269185819192691, -0.005290807473718226, -0.0201746999575757, 0.004403183496501716, 0.019076000197389465, 0.030773576288416194, 0.04492992554886453, -0.06156250859669747, -0.014288336034787356, -0.009862810094802521, -0.010028504637056962, 0.035818481442302715, 0.0006909449443412874, 0.012864303068404536, 0.011995732294245581, -0.02798319542622081, 0.049744070080498096, 0.05219981891076809, -0.08560690448183149, -0.0025657973827123244, -0.012069275176753961, -0.004948091547015781, 0.06966729841162721, 0.01969974038623022, -0.028698207920141997, -0.06619613109697081, 0.016815391142933647, 0.01497820756783289, 0.026329893920921676, -0.00033523625262148486, -0.05067656482617068, 0.08347256664982622, 0.009419788706474619, 0.04333069895294761, 0.0294276274503578, 0.019916764055059284, -0.03574786504669347, -0.011922637672094087, 0.01595404618097933, -0.06409426194651324, 0.01878205323687017, -0.04806739161167896, 0.004429936675041646, -0.003613025030685388, -0.006073187309814833, -0.009600918037299544, -0.002442421483911975, 0.035345918966635616, -0.09390078489167968, -0.001750801800826536, -0.01302851038881366, 0.042154620900892587, -0.06795115264128518, 0.04474929719225448, -0.016176219133588438, 0.041620920606557296, -0.04059898238214898, -0.015662867273877962, -0.045690881415615885, 0.08791468804423612, -0.049942491470293, -0.018468216633859127, -0.05252262695456057, -0.020928008720505424, 0.0049629201334523915, -0.006964015265202285, 0.03216213806834869, 0.03943628912252195, 0.013746573135314494, 0.02296306769115884, -0.0048987148897577, 0.01601209654306476, 0.0426454747029388, 0.022662803492645146, -0.012240111369322994, 0.01600472886199357, -0.06805191302105737, 0.04451884905732594, 0.05047585874725923, 0.020610794653338236, -0.005651809414297545, 0.01947667826686397, -0.04555157183890041, -0.024211851092979846, -0.04250412003168178, 0.07039432845761905, 0.00816207365468087, 0.064986588229284, -0.0604446612131985, -0.025787722449143853, 0.02364291631780583, 0.028212818184493168, 0.06946541744920723, -0.0033863243133710687, 0.0343152407787009, 0.038937953001020834, 0.0028620811343758974, 0.009753781254363582, -0.03317896194229945, -0.012123626593232488, 0.032778370200219266, 0.008240673685218533, -0.12845319693325394, -0.040032645748581806, 0.017822526876971962, -0.028547917877676843, -0.05146949400862244, -0.028273910787211372, 0.054195121959949286, 0.01608463328635824, -0.026735362353549574, 0.06035267709030328, -0.03975364243906382, -0.011014956311003916, -0.03090988974026828, 0.04042881974796254, 0.01968731256391231, -0.005794510093569169, -0.010969102286998482, 0.03864896370599344, 0.004431516570655899, -0.0021936337597115406, 0.04074702843721856, 0.015515730727499795, -0.023983229496859687, -0.018711790577050233, 0.03522112016031707, -0.0008659731194692739, 0.030749815769505248, -0.013752745954193447, 0.001682786997884861, 0.02823854484516999, 0.015599893408891214, 0.03144625945650819, -0.033440727098525413, -0.0626441747860049, 0.0954042946603896, -0.05050516514638094, -0.05317224528321801, 0.07423936187385882, -0.003017241027584343, -0.017546499290085275, -0.01641057723946634, -0.007536423808141951, 0.0032576991524285513, 0.008494245117065327, 0.02117495141278205, 0.003160771447978021, 0.0016935400233183675, 0.04007776264763353, 0.01077315013854668, 0.04156987356601024, -0.0034057787738237233, 0.0662033742815607, -0.08838544508607865, -0.00041792473296980065, 0.05648828740330723, 0.0017695668121996124, 0.021580614615840207, 0.05596073112028583, -0.005912843993236087, -0.05367636359275604, 0.019397685360213295, -0.10277808986073177, -0.06838437747564612, -0.027320994833088173, 0.057316526610417015, 0.01959852936577349, -0.03897086701402668, 0.09115247596430966, -0.0014626984883055257, 0.008558849434594952, 0.05342227664064342, 0.008327317964623077, 0.019606546433698066, 0.07131604896467517, -0.03756121245367029, 0.03454820231250219, -0.03518144631329206, -0.011547689753710138, -0.03116630531662889, 0.027955117291485525, -0.09622762833172127, -0.022613729717950847, 0.014996083024770242, -0.09745396881955783, -0.015840770308753676, 0.04737250444137189, 0.02345664534500775, -0.0036061690669626687, -0.019028435724160745, -0.028951615622683224, 0.02823091641444625, 0.12452386383897689, -0.03708209899936987, -0.03408898229487135, -0.02638420456935127, 0.0021328755503793235, 0.041147698691146456, 0.04521601667833299, -0.03819171954437122, -0.051461864249102506, -0.008848305608459044, 0.027528870226117125, 0.03811784183088543, 0.010476137110829889, 0.01631847283405917, -0.007332901612055271, 0.0019593616708379817, 0.04755050684130362, -0.005868011297718664, 0.05149471841600177, -0.06094105519221073, -0.005638289674651271, -0.01106293535300482, 0.012488231306487511, 0.03491397574049157, 0.02773611381095345, 0.04190653021530899, -0.01300822822102135, 0.027626938024793355, 0.046481360067774084, -0.013998056854713352, 0.004010743400799934, -0.037844185218282464, -0.058518662148629164, 0.022488600181937022, -0.028713269029828695, -0.0012874088283047129, 0.009918456578975282, -0.016215767911469576, -0.010789255225390518, -0.004374340492832399, -0.054196867593481385, 0.012978589263645214, -0.010560875444804722, -0.03672249118951288, -0.08658336929797221, 0.0387149342472625, -0.06125464621255043, -0.05221506047599836, 0.004727296147465774, -0.08114213960228599, 0.04896697490193926, -0.041071811880643794, 0.04601443953499146, 0.018297778582120144, 0.02279554036916682, -0.007089576871808905, -0.06451278600395402, -0.006745857458141582, 0.00034655495097183264, 0.039833793770205045, -0.014877626141175508, -0.005324725964251716, 0.00914038180381453, 0.03567555192833018, 0.026594742487606085, -0.002970414339259655, 0.0650354713088878, -0.02148977456139924, 0.05660609738410759, -0.07965961907115661, 0.05117354838743455, -0.017753219592974715, -0.10214173117060571, 0.05725783566069033, 0.044307434590604586, -0.04679999637958841, -0.006767795184262135, -0.0391884872293791, 0.0009145187980534231, 0.04113083144123126, -0.041948327526812636, 0.03632942359159583, 0.02530468941400464, -0.026941622128614322, 0.047903086800005275, -0.014763087034777325, -0.022634722379998213, -0.0004156666233930358, -0.007041359738361549, 0.05702032474292876, 0.0527806507233749, 0.031039653780889544, 0.05981209583688636, -0.028882821485704653, -0.02280974683225796, 0.05617392535423718, 0.07155917069974743, -0.011297649945399783, 0.03458123154276266, 0.007320750843905717, 0.02436586277871251, 0.005988457720892532, -0.0006012872085142373, -0.03413470526561849, -0.030251452004679533, -0.009230699388911356, -0.04904396711720971, 0.04083714893475104, -0.007428789927909799, 0.06330221267460912, 0.05056228246635047, -0.014651681814672276, 0.052443576949888236, -0.041318394359111915, 0.08978444117177059, 0.045957877997193565, 0.020925039910832836, -0.024545138696000952, 0.00304060051296444, 0.004134170631323652, -0.0330018509419027, 0.029135944954237318, 0.09529412983524148, -0.0073451641486358184, -0.043508279419586134, 0.03204236931229154, -0.02932785764557297, -0.07251353848267338, -0.07269960432275309, -0.09693336321355205], [-0.010017574743814053, 0.01735477993511523, -0.011739905981841735, -0.0027008763676313165, -0.07034512250610442, -0.03952695876930857, 0.007510745708373645, 0.05644323171782877, 0.057168459281884715, -0.08902342447950838, 0.048221604631091874, 0.017576568353129093, 0.06018971189524523, 0.008797068114350272, -0.04342194489493801, 0.012185855913619972, 0.011765966343701466, 0.0019916626038723466, -0.06395490589063858, 0.01852993333544476, -0.01843451010449095, -0.03272715032231373, -0.03991039268401319, -0.014490242834234142, -0.11345284813706545, -0.05756513706877808, -0.060637408612692054, 0.03877720263579331, -0.017571090695587644, 0.05384500289146612, -0.014595877602555018, 0.05661435765516228, -0.02957864094484587, -0.0138342500477841, 0.06065755771854737, -0.0073957652728926454, 0.000540036044898158, 0.008650427134034633, 0.02542283490092969, 0.00578865894920509, -0.005681118773868586, 0.013966574682326538, 0.019994897362021685, 0.06091357235303261, -0.018189380498966158, 0.05536504219662411, -0.037849844605327844, -0.024200474320045004, 0.027627813326636122, 0.01293426769970194, -0.039498657255039836, 0.014619421362758246, -0.03322970934854338, -0.015801526755556048, 0.07577382495626211, 0.006654512135262118, -0.026410906693920877, -0.0033760369272190613, -0.02683060458605557, 0.051980029666972925, 0.06817523492133082, 0.020268313563042834, 0.01471302296106576, 0.002805706238569333, -0.0048961488712324815, 0.02321765241283402, -0.018172208260345622, 0.0035723920471588083, 0.04285601401942195, 0.0596132964496915, -0.017281432728160663, -0.014799869440954412, -0.001281609346635463, -0.02709404062913781, -0.025116805864155867, 0.04217504549836829, 0.044815140118963114, 0.02801587510833755, 0.023237769919972836, -0.10461144938382129, -0.0514772464225215, -0.092784064335499, 0.009743570823300218, 0.0018740448971622768, -0.022908613231329752, -0.015855582848955812, 0.006477063288381277, -0.058114598672767775, -0.05312442267542896, -0.014469670202556883, 0.03861457610410539, 0.050834690135316836, -0.04597159371646669, -0.008963701023670317, 0.006944011863860806, -0.011607628950956692, 0.03167098983202853, -0.011528860731978053, -0.03004952195902955, -0.00335596348701149, 0.016575843791579253, -0.003258902751662112, -0.0038237509896413215, 0.0371837981115784, 0.022886310720265455, 0.0031538681042482105, -0.013121010062263159, -0.003202793988121561, 0.033061363321870665, -0.03972846102966563, -0.03531973454498022, 0.0007486593939611577, 0.050527970279574626, 0.0017937412425675335, 0.011554963163216745, 0.07872309082054903, 0.004452137280919007, -0.01724184739216378, 0.043158689152998295, -0.017946972467724247, -0.0038256508796651544, -0.017721028476547614, 0.004528558175865755, -0.017986021636336613, 0.067063367747654, 0.03555308744167921, -0.06494895702883306, -0.04316685683357921, 0.04676661897513818, -0.009321157035899743, 0.03315086401916743, 0.021496515066593867, 0.017698051074843464, -0.0006331756595058537, 0.04150502885045264, 0.0211102705829123, -0.044676902485984805, 0.03363619884953597, -0.012272362144059105, 0.05125844247407451, 0.025334848013054655, 0.018270192259295766, 0.005779077447708205, 0.006848580872992252, 0.02531487265788834, -0.02412548789629145, -0.006359763128973632, -0.02959764790431797, 0.03972035926157866, -0.04892852250436643, -0.02922463882551006, 0.03158855960580273, -0.0604027936291742, 0.06778615238016635, 0.04714763584504033, 0.00629807778489663, 0.011994677782027598, 0.07379535456207162, -0.00041857071418008963, 0.01910046256982778, -0.04996759757743485, -0.05818019848041351, 0.03981491244581798, -0.02718505737556119, -0.020043599156063723, -0.01590922685806661, 0.08067648484213988, 0.005412433992115433, 0.040897669647876174, -0.008145396690671483, -0.05371048268402204, -0.007134883480910272, 0.05413990179321094, 0.011750161907878824, -0.008173029336697203, -0.021464178201248508, 0.03815675304897797, -0.07673369003998651, -0.0049341184275319225, 0.025494393693408283, 0.03849206562152258, 0.00582162768794479, 0.008262444766662713, -0.023942626662387976, 0.06857159749494564, -0.045045242548168954, -0.02706293017269719, -0.03565725818595277, -0.024229141873058625, -0.005010363782101407, 0.005368831146916828, 0.051954602401484196, 0.036728507859234726, 0.026677480167069178, 0.04603936201263775, -0.008061886664328187, 0.006294054115597187, 0.08714794356242321, 0.036389335514514745, -0.06725231786339668, -0.02298004643385731, 0.006324609373140522, 0.02543889875097674, 0.03177789831014724, 0.052995766333366556, 0.010092167388561484, -0.010106708532415335, -0.04859246268061982, 0.03194691751543714, 0.0629514027714703, -0.05832546563786403, 0.028648666707515112, -0.004165233055575839, 0.07395186041802951, -0.00898649663587001, 0.03551951118646086, 0.00824630732355974, 0.040967913226138304, 0.02525311575510995, -0.000694258699824349, 0.0013810453941011408, -0.047944479041772764, 0.014103743434555782, -0.013286845255615342, -0.0007086672525198896, -0.03304543937632712, -0.00677577115390527, -0.0026934742310346844, -0.04919928210541928, 0.06875781158984778, 0.04005301130723819, 0.026496509598750252, -0.03503828030856273, -0.043262734428405066, -0.03509726289394489, -0.0645557169637938, -0.0408368489437334, -0.05569100850579964, 0.05137804942755116, 0.020384272217346525, -0.08641101044893637, 0.05912756766610834, 0.027684628082602324, -0.0025054230251222056, -0.005265677152088461, -0.03204720350461952, 0.06193655365526291, -0.01867340143072916, 0.006827333295217919, -0.039316677663659184, 0.031092409270856606, 0.06776005512454064, 0.056104678326675234, 0.04139574355243407, 0.040886739383651914, 0.040076520712539726, -0.029238133373822587, -0.02009050331417009, -0.01319962974799805, -0.0016114317459176503, 0.0607711280898964, 0.02031580970409344, -0.01944648715606869, -0.02088217360854568, -0.03280351445935241, -0.016083403351167622, 0.013204687876395959, -0.019300572580445607, -0.01767193499420481, 0.0448636935198802, 0.0035080621187614618, -0.02491566922248885, -0.03369214125008857, 0.04620585468097475, 0.012975787213286093, 0.001490698555564162, -0.10032688190471843, -0.009417247020902318, 0.007459721332922789, -0.008270061644827055, 0.0636235294199232, 0.009941435118782876, -0.025521261923016843, 0.06397994498273472, 0.010595582436278549, -0.037256983174990606, -0.02773762023625763, -0.004432225097062333, -0.025125741827926592, 0.02426538775791891, -0.026501675954408794, 0.02298284178521547, -0.039058323139787424, -0.01144552136024157, -0.012066706815123956, -0.005254760666369043, -0.015041566338024512, -0.015961645414405565, 0.013616761499393195, -0.03646987857503308, -0.037087722013439975, 0.0830161060871755, -0.0640377191410019, -0.05492725223572232, 0.07776821123583356, -0.046683029996979486, -0.007851371028971786, -0.036193934219761005, -0.0299828724803435, -0.05996145661682332, 0.04189108886470008, -0.01874095703940075, -0.0016720354213192962, 0.026444210213934505, -0.03997846950107877, -0.006229810122684098, -0.06018986346130877, 0.09649997319213906, 0.006955349546677946, 0.028033085840021725, -0.09407738039745142, -0.04521931772820217, 0.012626314758834386, -0.030122293777277112, 0.07150206504233954, 0.011856857309858176, 0.02531416218201113, -0.03854058449641837, 0.06059173374420208, 0.0009318389577239397, -0.014572686082039207, -0.04337996684545415, -0.011170564933393835, 0.025255882671145036, 0.028836857137563232, -0.06254153930311183, -0.04838396589514279, 0.04816783632720508, 0.016352805774401867, -0.02887081984420071, 0.03489942112235835, 0.012578232985446025, 0.018606935578842177, -0.01646785231507507, -0.03881454126585377, -0.04814094815454247, 0.013203506395793204, -0.012495255067025849, 0.055524114513322564, -0.001557344432194501, 0.029806943745164745, 0.03879719258750991, 0.023521427462146777, 0.01745016140116328, -0.05110680756734546, 0.045369648089218916, -0.015432460571645296, -0.012510762553243297, -0.033305228405360876, 0.05820693596883852, 0.036959356062568144, 0.04456132685367399, -0.0109506136566333, -0.0009860774851888322, -0.06114851309560077, -0.08843459198074334, -0.04620907308075188, 0.018407295178902057, -0.004914549385303168, 0.025928379214783043, -0.02564931536685419, 0.040534288799064275, -0.037196666665705855, 0.02105490109913959, 0.027108727591861892, 0.05436473241238788, -0.008730844514694023, 0.0016785798665333977, 0.018474935542207215, -0.0128279771511493, -0.0910701093205454, 0.006561832802035875, -0.11365159332043852, -0.014269711253799187, 0.12004060647602262, -0.02559698057624882, 0.002340218634509822, -0.04309654898958701, 0.053797603732071465, 0.02903317131802532, 0.00944366739134863, 0.02001352253515634, 0.04051881992169208, -0.02658424942304126, 0.07352144543408094, -0.04083160494935621, -0.03984561232133019, 0.036826396120475675, -0.06243355308012869, -0.0015280393399814559, -0.023269076258907954, -0.03943967057213938, -0.0008839784608546984, -0.027800790767643635, 0.01291116059350017, 0.016577899573213366, 0.08615958930735647, 0.017456722511830024, 0.0002815347269346345, -0.04232258978486553, -0.01672746687900162, 0.03694568652936693, 0.024825100767470732, 0.012371504032063064, 0.03250184417303457, -0.046091790723629365, -0.006623114182664333, 0.023158205612296003, 0.05336273428479499, -0.032241400772771524, -0.014699501243991784, 0.0014897230450944769, 0.017870160003727056, 0.006753181867988307, 0.004825063878811504, -0.04487073924469178, 0.013590336778513491, -0.013484964234006027, -0.027613495481053563, 0.014541202627408567, 0.03153785016699561, 0.04083035792149011, 0.023495484484235857, -0.03188616872698933, -0.04613201145296442, -0.011787182969795381, -0.08817505826550134, -0.10046050264269382, 0.07613387570997705, -0.03805512819343985, -0.019094518670192632, 0.0515560345605468, -0.08718265686214559, 0.04608479813932293, 0.011942327878798424, -0.017716628599163335, -0.03232403136010404, -0.04120180929978216, 0.057800465252449675, 0.0014521457795704, 0.018026961638427774, -0.0019498698987020805, 0.012803187061387215, -0.008357991897214291, -0.02167709967408268, 0.02314203787136454, -0.032009506235293965, 0.010006494209009838, -0.05247057577352825, 0.018860952782568215, 0.01692357216908479, -0.028323747806980236, 0.04254117895465364, 0.008174861281609349, -0.028406504689243665, 0.004557713648615033, 0.039177003571764804, -0.05086589270109545, -0.0061289221776889505, -0.02493328177073633, -0.042577309101216904, 0.03558104866805893, 0.00015600787745135905, -0.034326796933669766, 0.035494580916276185, -0.0036517374755594316, -0.0007029284250941023, 0.01031122244114018, -0.048425184308699354, -0.008749161490420557, 0.04105030078908137, -0.016830847783396715, 0.0011927902216615676, -0.08385850484074184, 0.010367608764171376, 0.06593752276334482, 0.016972887188545043, -0.040107813965102615, -0.00425762987016963, -0.005588323525389945, 0.017159605891162662, -0.006613573790607896, -0.06202856255014962, -0.030142915781096295, 0.035848056278669195, -0.020663744024734847, 0.008060245195753669, -0.007162386555367654, 0.03901991267510972, -0.03497882644210127, 0.01718166391711494, -0.01648102846042085, 0.01004031620527457, 0.025730045795887276, 0.025917517301763747, 0.04950399229607586, 0.008929229720844221, -0.0520822576293506, 0.0588134810967439, -0.030530579264666045, -0.05336152480569383, 0.019677340737599476, -0.10212474454056918, -0.020641427955612437, 0.02231187557291988, -0.12780657403410747, -0.023674977212831537, -0.0014995058269869088, -0.06599122690206202, -0.03715751574910891, -0.07863967943508732, -0.018011088448874366, -0.010060275750994043, 0.018348054365870232, 0.06939659635950773, 0.0923759402336122, -0.03450313811637678, 0.04728487824629549, 0.037257155801476136, -0.03806842091662249, 0.018442330516370693, 0.008834081771562911, -0.0670490946377434, -0.009533699305330545, -0.03878833892263554, -0.0056601949602113856, -0.0036144311726903837, 0.03157058108163717, -0.014071906941440716, 0.013946825737301898, -0.02335238052518602, 0.04994050886521656, -0.031556782522123066, 0.021580347467219194, -0.08221146454008349, 0.015295728990547586, -0.05377469040326548, 0.05540334458801297, 0.013747299825932549, 0.004955642476007996, -0.003810845588619828, -0.03321882296404265, -0.01640157825838326, 0.03367919880457449, 0.012226700063162926, 0.042655720809525295, -0.04283858159838159, 0.049447397085374475, 0.003154764642142458, 0.003977423906299598, 0.0032679473963036477, 0.039953561316573266, -0.02651661870476719, -0.11660970529176307, 0.004036578876496308, -0.0419210958568502, 0.01958676633698647, -0.07807481105046218, -0.02339653611822058, 0.059003850683704964, -0.037922573309707254, -0.059140537691786545, -0.0082230215114627, -0.03588703068021029, 0.028747166357453738, 0.07134418773433547, -0.005153723515932362, 0.0824005741981665, 0.02359451324462896, -0.0525764618409522, 0.03035649762872058, 0.07970990999537289, -0.0033948508978720233, -0.010905088501862248, 0.0060237300024649915, 0.008537455076360546, 0.022489288216756314, 0.009960476679044488, -0.007994748260926266, -0.04158271705630839, 0.04130622870007132, 0.05269135321635991, 0.011884868533502813, -0.02886805517571759, -0.006855816156375931, 0.020043101728572037, 0.012536957818651941, -0.0030703719704605332, 0.019275520585960854, 0.057383451294424834, -0.09097014261941895, 0.013705472564388884, -0.01263621894238612, -0.03303585333598276, 0.029431551496132618, 0.07212089196407565, -0.10983343321590588, 0.01848214604687375, -0.02767696053276521, -0.012043475596475964, 0.02030625005320247, 0.06596101721662297, -0.04426463615043913, -0.0017773185486371801, 0.04632245963358975, -0.061249374124775054, 0.049315033753229126], [-0.01228326404296865, -0.027961184050058763, -0.0909386690064131, -0.021082091675639625, -0.00403992639366419, 0.06128726298995724, -0.025715328275462662, -0.030782609292892466, -0.033857401538331874, -0.04176359746396501, -0.042245762677729254, 0.03677753516702554, -0.03888500191921948, 0.05587875792833221, -0.02281066102208763, -0.06190729349283003, 0.052825732601123394, -0.031085327792078253, -0.029466162599950097, -0.014943233306995601, 0.0655619459047232, -0.05818676249966561, 0.07227179572757654, -4.266510401854785e-05, 0.02268349056803253, 0.00935815362858952, 0.04139085644540566, 0.042056290323949246, 0.03081170392361952, 0.02345431188011658, 0.056569754033232875, -0.010301209212023033, -0.028637905132293823, -0.0027210305858361233, -0.0707735427145708, -0.019687725194322037, -0.022333316396074304, -0.028314114330614534, -0.03295588315839039, -0.022247079532364607, -0.04185120018208492, 0.005719175196598523, 0.0634142420140434, 0.002076314721928381, 0.029647697045495924, 0.036598005345629216, 0.03899257291973951, -0.010472636002269827, 0.005327002191082946, -0.0010874765875850618, -0.01983381202318865, -0.04171813734650391, 0.028985479839200107, -0.030682979138357446, -0.047299768195799764, 0.02555718225361987, 0.05195731035556902, 0.010636678165234776, -0.06166094420819707, -0.07108183939605409, 0.0034242249872411855, -0.0808608713926871, -0.058249635546199614, 0.023803615214874424, 0.053084415273006606, -0.05188538866980467, 0.01896266491491306, 0.004353883886510587, 0.021383702578116028, 0.06264894759148489, -0.04721135555147204, 0.005097177389711286, -0.060279637355367365, 0.009007799271132853, 0.029366681617142128, 0.0805529593657699, 0.006359469787084608, 0.07305234195046333, -0.015943681417877026, -0.049375736880284, 0.004255924791982344, 0.03103621673983716, -0.040345996121744436, -0.07920579340766809, 0.04777821738817986, -0.05858718010466816, -0.005616589093934437, 0.02290544895106283, 0.029756592777082796, -0.04174932718265045, 0.014320350852126932, 0.016804196666884704, -0.0017217072511685329, -0.05087355507639642, 0.004724094828411321, 0.007397609943055889, -0.02184453264442194, -0.06582400832969806, 0.004770759054457304, -0.016214928092365393, -0.006829398172036852, -0.009385150737850338, 0.04300227762661173, 0.013807207925494785, -0.060432265720824205, -0.02730604502840639, -0.008604547087438762, -0.017353137414771028, -0.0016196413713028897, -0.013223727761588677, -0.0034430898904329976, -0.028026310566606944, 0.0058837530630485545, 0.023612993595290288, -0.01912130340374759, -0.052482200140385175, 0.046703455497748, 0.15992837304090365, -0.03268272962587948, 0.02019254818314678, -0.015446176084264024, 0.021295985729727827, -0.02740630494983464, 0.08444086171152976, -0.01624484831269658, -0.09280863758522308, 0.001633591905927658, -0.012228860844989899, 0.05831777106572232, -0.027781084367812164, 0.015832300097383834, 0.051898031849943405, 0.007813649530884828, -0.01860332094609629, 0.04936593362165003, -0.05633549651657488, -0.03154906362435511, -0.0044129538439414955, -0.07217552188356811, 0.08986915597639324, -0.026653782125399466, 0.015047749828868546, -0.09749103512032084, 0.03984259636510645, 0.0032877200067642056, -0.0022717784064872305, -0.002413462832346182, 0.011656664037856614, -0.023142908462845637, 0.012985393398207543, 0.10017246451273183, -0.02670590585884158, -0.019264225003015396, 0.057991048040515546, -0.02769097504147635, 0.01674171477893821, -0.03554761084057504, 0.02530618654440186, 0.005426211028024928, 0.03687890105589228, -0.03672430141521936, -0.011016000996511932, -0.013491353617557498, -0.033453828713412924, -0.07727738313370203, 0.10363944025778478, 0.017302085909744466, -0.005232873507671058, -0.05371119572518824, -0.06757169104843477, -0.05503721437188764, 0.03470909607072645, -0.0006095028288147365, -0.004631850774656764, 0.005743283223625896, 0.04349391816374226, -0.007555215106019312, 0.009169153997376731, 0.07199480445918519, -0.012531140616984017, 0.022502545037031904, -0.003416915738826189, 0.05559204847264202, -0.025775980111747435, 0.0131123040981498, 0.040669095011001334, 0.06215839294092232, -0.02652054092729611, 0.0018612196478937745, 0.0966177323947797, 0.021979348846904417, 0.004213075809399979, 1.77326445960206e-05, 0.12464995656286995, -0.04712556513615402, -0.043434586316969254, -0.04664499155312757, -0.008470158026196153, 0.004183555091250588, -0.027074653587292122, 0.039711766000502594, -0.01332751241692962, 0.01193127398905312, -0.01938663400490342, -0.005620722540773239, 0.03988640848158686, -0.0279695589123919, -0.03676151506166038, 0.01365471562017295, -0.0374839269882923, -0.023065376674940106, -0.05673539464640955, -0.03596607257691858, -0.03142001539244286, 0.012719768061030916, -0.02611848966432541, 0.004215640112872279, 0.013313027154113392, 0.05061338851973937, -0.011488062698048956, -0.01278889633608108, 0.029935439883096646, 0.04174939275544906, 0.020315180113012338, 0.015424577966793213, -0.015945868818889836, 0.0017687753389358768, 0.02104439708236952, 0.007983408418444301, -0.019351499076985284, 0.042999405786856064, 0.0022951174846366097, -0.025165425755596056, -0.056530568984302934, -0.022146750619304722, -0.011593310822210203, -0.059673719178152555, -0.07476212130615761, -0.007720835140233948, 0.05633719187993132, 0.02499552809708008, 0.07731739497062126, -0.011028902965036731, 0.02995385978497971, -0.014019357814644294, 0.020430958762782288, -0.0036230015636581846, -0.02106834499036065, -0.04687026611447044, 0.024659003466210225, -0.0297318459589416, 0.009535478349834346, -0.015576177810355881, -0.016436464078404475, 0.011990953784576463, -0.0006171342126643519, 0.10633366936857783, -0.04205260346757836, -0.020239248874824107, -0.058670407171897115, -0.0587521141471112, 0.035600531406288397, 0.04718779986359093, 0.1047842729025362, -0.03463984734007889, -0.02208940328600768, -0.027621054184526657, -0.016517937514551544, 0.023896215276834443, -0.07383060541797799, 0.03205066985054443, 0.058939367204899354, -0.019923151028765986, 0.05621671781351051, 0.05171284438701973, 0.022847132190987572, -0.025755878700704164, -0.038329015336744085, 0.0874146106273659, -0.0023717142691638813, 0.02493286520299156, 0.03587430906921224, -0.00536162679747248, 0.05262099501122565, -0.007805968507569626, 0.07658687061014148, 0.031167563054017078, -0.07379234583612804, -0.012041935914566123, 0.030353637331949148, -0.01978951530480477, 0.01617775250903828, 0.026443621115329635, 0.045267973705781624, 0.00043293204253920834, 0.024621783935295915, 0.016322932515279522, 0.004202122913808419, 0.02885696638442151, -0.05358177632258564, 0.02420626880987413, -0.029328873376404455, -0.03253498314013786, -0.05711600595206964, 0.02102089530337244, 0.013839728610636162, -0.04391534274576419, 0.002586111040416517, 0.0004285236300961956, -0.013065281501265383, -0.03859960653125154, -0.024438157813266873, 0.023957046559467673, 0.030227378624311567, -0.004234427683743971, 0.009895689581665796, -0.09928891503539165, -0.0014180276832448419, 0.024748153447421824, 0.0020006482312215196, 0.017374185966286274, 0.03957268746690478, -0.0026370631628382093, -0.013596747169547495, 0.05013028753913853, -0.04141277195208297, 0.052882486038208214, 0.033055476275424746, 0.07805196185818762, -0.028012646494440914, -0.002801717520433463, 0.06802858878645125, 0.04535405954286029, -0.0005799595251204931, 0.011446177625751529, -0.04012593762087766, -0.01710701126018141, -0.021214231866942327, -0.05591966676121031, 0.023479617210101323, -0.10458605574202616, -0.016828516557096843, 0.0031754711262921955, -0.010899402046962478, -0.05054509083865445, -0.03777749731043237, -0.016707371626075187, -0.1352983555810352, -0.038157299625014365, 0.030805597597643206, -0.013101806693613938, -0.005014759354635592, -0.007209771603424176, -0.03635675353485614, 0.029327911602510075, 0.05467312515246609, -0.08086744747345685, 0.07455648835972646, -0.01615817987431286, -0.011734947756115988, -0.04935261219799487, -0.05975916412851465, 0.05234456922335466, -0.03357278333790217, 0.04204819207581023, -0.0029025130344805675, 0.03543118162079175, 0.0949638769411902, -0.01957946129883662, -0.006233464354516574, 0.008925328139028188, 0.046498780387313025, -0.002280325515289185, -0.011843180207773162, -0.002755942293904062, -0.02623469431452185, -0.02477775507060776, -0.038350180110998465, -0.006564678234150567, 0.0030717471199153525, -0.005585713954191526, 0.008226240768331089, 0.07202081831829253, -0.0929167591976742, 0.03602572370092808, -0.029057421815433523, 0.008618817688770439, 0.004666211212836463, -0.02586869200231545, -0.05500899731609142, 0.022646992156027675, -0.025660298070173542, 0.0076103631654688905, -0.017168183819802344, 0.02476787519781708, 0.06054031994095959, 0.06697430061849229, 0.002518129218790571, -0.001744490725724205, -0.03627153551273407, -0.010145700775680416, 0.047166882138410644, 0.069313671568672, -0.027168801623436906, 0.03462357094105664, -0.05712711719499628, -0.04850879776592906, -0.014365506273716432, 0.0755577255215384, -0.008960248304312165, 0.0018484608267209525, 0.02214563721365565, 0.03983948339669884, -0.05004239046242151, 0.0666417396224721, -0.055070509114175735, -0.06691457662062847, -0.005266591051111059, 0.01993911101773492, 0.029325040622088582, 0.0875066014004085, -0.03163742324008583, 0.053286348245936095, 0.003644519077493006, -0.050085426878494106, 0.007129051489255861, 0.0005216196712604696, 0.028628665791879948, -0.013020153623313706, -0.0351686878109432, -0.010723400761488361, 0.011122289978170594, 0.021490065243421196, 0.03141831707570978, -0.020091390560272548, -0.007444204992403607, 0.043528577659848855, -0.0063493315273079965, -0.05812637097230916, -0.04973530988795599, 0.010911775833139447, 0.026771902946669524, 0.028268225933960736, 0.005577929101226952, -0.0545453345312059, 0.0026625603539066965, -0.042083407940999136, 0.04134953708892956, -0.059761571378569946, 0.07087780851565033, -0.08721389526637996, 0.07494698599749545, -0.053519413700292055, -0.002592042780300964, 0.08136592019073707, 0.007796757405191771, 0.010475933401391614, 0.024169843023263672, 0.04989804881234786, -0.007828800919093678, 0.0007679371273295551, 0.034841594416746446, -0.009172590635711993, -0.021215143311049636, 0.011997836672164378, -0.009996884206509645, -0.021955449252658965, 0.00889133057098774, 0.017806297987887718, 0.0038219556636234627, 0.03569789587536582, 0.029015492888717024, 0.02765897449558667, -0.010290769857873822, 0.02122839049497903, 0.0418996007711525, -0.038018320848071066, -0.021337993955001047, 0.021133414617665623, 0.018122444509239253, 0.04174752428229853, 0.0016633967154259931, -0.025968195979504997, 0.009199021293610811, -0.003821539211500856, -0.06866905490289407, -0.00571347543675835, -0.07252650791474488, -0.04034135921360573, 0.08598244433415446, 0.017913451029009722, -0.04811129402231469, 0.012493086279641397, 0.04219629945007505, -0.03585114601509341, 0.024966315890500468, -0.001353232757158237, -0.06616976617805778, 0.0193049705770998, -0.03652189824345375, 0.0681790881615664, -0.005831670037367006, -0.02850271196256218, 0.04991154338711996, -0.03057161054643552, -0.0048519846678018565, -0.0429045177856298, -0.11346996702585808, -0.017806677235109578, 0.004154414283015748, -0.04868967814920519, -0.0971739014189618, 0.02562907481519584, 0.014115989337987153, 0.015381936361716536, -0.019583137016569944, -0.017990773449165002, -0.03960772266168526, -0.034873047932491824, 0.0013498855359951052, -0.06095315690321011, 0.10129592701119618, 0.001177242680996692, 0.06036978121619668, 0.0025546199611707994, 0.026472316542751086, -0.021583249667219064, 0.08244441635359216, 0.019088715415272756, 0.019972190784250467, 0.005971180327011064, 0.0435745262161784, -0.006678804230878493, -0.002762672636597137, -0.0518987623331381, -0.012051292528279836, 0.01871208173995702, -0.03907836630937862, 0.05297501661271997, 0.07775577820969397, 0.023547375909084605, -0.005484532423193819, 0.07656229270030733, -0.001681350330169043, 0.027669746481791203, 0.00900650198032506, -0.0824196147223004, -0.002603908804618929, 0.03735713208222454, 0.05090036682423023, 0.015326382763266514, 0.03638051320024409, 0.01163600336263942, -0.05572383214418677, 0.005089670486177495, 0.05118657826333626, 0.0371861939093512, 0.0594820265252159, 0.02810022416101443, 0.04673352059682596, 0.0186109621857252, -0.03370893688065877, 0.06820967868521394, 0.007012104538933775, 0.04501294157702241, -0.01244145383092769, 0.036510034723528005, 0.0738773848201384, -0.030511068604147016, 0.04515947384015232, -0.07597075348978066, -0.012565021938416555, -0.08683803642276332, -0.06951721149141948, 0.029093542710667886, -0.024244847529510307, -0.0321068426071189, 0.018633905125620655, -0.017485500393028666, 0.06876569569498146, 0.0018274663042697308, 0.011370592796365512, 0.03537147491959451, 0.04234489528698029, 0.0022191847054606056, -0.056256292384345354, 0.045840692312562645, -0.017099523187756153, 0.0026806976259068313, 0.026721761281980633, -0.011359528066548072, -0.08330082294092504, -0.008494285295774458, -0.018381896448683405, -0.019800056111427714, 0.007155908612234047, 0.07511335767327032, -0.015141822996684602, 0.03013878247916592, 0.009760834283859075, -0.021847449270023137, -0.032411889944202306, 0.003857047952208138, 0.017229614277569635, -0.007759371625674612, -0.014733805448160232, -0.04750889475646239, -0.07459825578076396, -0.07316001983353507, -0.037024948214372286, -0.0004209228110914909, -0.06631481314580742, 0.019773326731793408, -0.026335099424414504, -0.012902874021841284, -0.03796904377225127, 0.01111460301648473], [0.03311133823136966, -0.06471042025665977, 0.028492950067927913, -0.0029378093124503685, 0.018267106874384126, -0.06404463968276171, -0.05059442277995414, -0.028373658345427703, -0.016104320336107113, -0.058752374522370136, 0.030659380791635785, 0.048929983798565675, -0.10041788923790686, -0.020169418067638403, -0.013718017853930523, 0.03904895507260875, 0.007745510774291149, 0.0028332360526323154, -0.005149512034751335, 0.005558094933640491, -0.007960835303010718, 0.03697138375803186, 0.0447773718413279, -0.08725790903873604, -0.037906540773859396, -0.019318585365614805, -0.010790326855119707, -0.062487557799155886, 0.038600162911312, -0.013475106362114565, -0.002272671323190583, 0.0040615261899615, -0.03893300162121574, 0.017727911876299404, 0.022628767497325248, 0.04793619494002054, 0.007447614605047113, -0.009054228177851974, 0.04442464640605253, 0.03889816183923825, 0.0037456260233551726, -0.03887874488876316, -0.04775983504483463, 0.04601766008638609, 0.02046107132312216, 0.002583703925073551, -0.00460911818486525, -0.04207703048845293, 0.06216216426553262, 0.011388672085645618, -0.01886349278399782, -0.03163523756621169, -0.00030989273068435935, -0.04379556758831055, 0.001969309449747498, 0.035637659739201556, -0.02373971629742955, -0.07027608740956298, 0.07856436956459656, 0.01709685224328054, -0.032848937784743536, 0.08194814927782261, -0.07559848105893822, -0.05383609736707042, 0.02354536252247211, -0.034633291498409095, -0.048172710797651744, -0.010658489758220403, -0.08726089940873852, 0.00745272671901475, 0.006529127872644548, 0.027545548007896013, -0.06094361401452461, -0.046366889932330825, 0.009370503618846376, 0.006149505601463497, 0.011390529801785659, 0.018007427211563915, 0.000773243562087989, 0.03506177967956939, 0.02120567224220321, 0.0785059440148864, -0.04469265398573233, 0.05621805084314151, -0.04798543891821631, 0.03408676957769656, 0.03554057558419265, 0.017147622672683344, 0.04704315442438496, 0.04944508505401105, -0.034227671210171264, 0.03800862616113176, -0.02387730551667375, -0.05105131551219404, 0.030319684128308336, -0.05607491845342358, -0.05104565637173331, 0.002329576939011137, -0.012461327727348606, -0.0790492865106964, -0.059742343700405605, 0.0002672870698304437, 0.03913252997679353, 0.060381507177174165, -0.026544453932605367, -0.07038820971039958, 0.02290037149439506, -0.08960015817977564, 0.07747381797443921, 0.06335740571227255, -0.04731596455760248, -0.05889556751234322, -0.0500804057973726, -0.009671876481020933, 0.042474509353653135, 0.02470446439439446, -0.023320317139540137, 0.014301422894944304, 0.047888681398065, -0.026762702286878486, 0.0076910867575008725, 0.02173779203052733, -0.04042686916259347, 0.05875719419561655, 0.05374325640291926, -0.025945261031279466, -0.037732703590119286, -0.0079193301921535, -0.018070146369692338, 0.031678043206751584, -0.04469675795649967, -0.030023419068114406, 0.00915538773085945, 0.037792426989698695, 0.03677396453554, 0.05680969541992926, -0.004231667200742092, 0.015523986212928137, 0.036307327278761375, 0.02687764830208734, 0.03023001520918635, -0.011790044844006007, -0.03558160854264527, -0.014419463667510653, -0.03291862203344783, 0.060124977932616105, -0.035770015317987076, -0.051172029689649616, -0.06178545245410571, 0.0272140078922063, 0.043855434511332614, -0.06275961753108457, -0.0062555342243234115, 0.04624257862676727, 0.017719827830507646, -0.03926259747172378, 0.008016485265512728, 0.06430746503827585, 0.031669349007173025, 0.02946781470987988, -0.04245352819827421, 0.013364433564306569, -0.01576174058809683, 0.03082849331973046, 0.02383446022387718, -0.017445395597644422, 0.011817831916788347, -0.01815062239497443, -0.01972206947854683, 0.00885788362566857, 0.0581491100277966, -0.0708677390988297, -0.013284865453076394, -0.04073297102430386, 0.08310092267754014, -0.049136435347073404, -0.019384355844448423, 0.013422382211120347, -0.0004697806906796723, -0.00281681879769505, 0.02257032820121513, -0.016938444245744054, 0.03209945627223286, -0.08829324995472136, 0.09223558956794359, 0.0518000265876745, -0.011136735095418633, -0.028996223163903177, 0.03393956591254487, -0.0712650196588515, -0.04621568391580186, -0.04240114295970389, -0.05818640290751448, 0.03135480164360168, 0.014828632292891433, -0.06787658942949992, 0.05945891784342784, 0.04147414663354911, 0.031288045478162003, -0.030183865922815547, 0.01570302188391483, -0.039260614709884414, 0.010306491828664117, 0.03799875515051305, -0.038266297728980894, 0.011575003950727027, -0.02474200367582516, -0.049201480422986, -0.002189128304244699, 0.022621988165240373, -0.09318694646536627, -0.014458942959483183, -0.04726506485533, 0.03227831191505664, 0.00927703208961494, -0.04359116599241633, 0.07319277516432299, 0.05757849710929285, -0.11420341181371972, -0.057089336277700534, 0.045207122938753404, 0.04014259402902313, -0.000573332392051076, 0.05522480010209683, -0.00438482498611783, 0.03191043326061268, -0.03551833198606397, 0.026482179132371966, 0.028629639921319464, 0.03859124046445451, -0.020442146759129365, -0.019898596808246176, 0.031147089313112948, -0.023442576720816743, -0.03956364248074324, -0.0110712986886292, -0.03439234763724042, 0.02688523017176814, -0.07477527702042289, 0.021249704165192153, -0.07919923558429053, 0.03275992017177349, 0.10210729351226987, -0.003644212089003017, -0.09356287683404176, 0.007834070113994217, -0.004739583791070104, -0.035626402743656, 0.0849871286571879, 0.043209730667574504, 0.008689826206079443, 0.004213216627964233, 0.040791077766599716, 0.08448386612264938, -0.04919330169529509, -0.026940273094826363, -0.010659922386232154, 0.027208539574803806, 0.008782403408729269, 0.009596351437854627, -0.016310433033572925, -0.054512032943038975, -0.003790373929961039, -0.02040784950365011, 0.050765174017197726, 0.048066350958152176, -0.017575141225963226, -0.027733995716999305, 0.01796577214392805, 0.05313073371496058, -0.046214020793076786, -0.014958679468335664, 0.050325258812485556, 0.023983839996581272, 0.041540250796091846, 0.004756383587901013, -0.050045585596165294, -0.0003421536030142616, 0.05107407925807289, 0.0007286564452826502, 0.06340090645423069, 0.05950664922410362, -0.03811861839720034, 0.0404851309793878, 0.005756077126725659, 0.03642559976007141, -0.035778964616398644, -0.025190643965131296, -0.0023522643661797434, -0.04025153047586902, 0.024490199196368526, 0.020687700122847926, -0.034681441159441266, 0.046168900537862365, 0.06765886514941853, 0.011922052295744084, -0.007387971880643951, 0.0075263819295452086, -0.010643566478646492, 0.0027798024240551886, 0.06636586970730216, -0.01235737158223739, -0.07556657740193225, -0.05531284540598484, 0.020318783581942404, -0.009225462911695563, 0.016128753638077156, 0.01019680714619451, 0.053719836813962224, -0.005212671058894237, 0.02119644507923089, -0.07961118598661898, 0.004136377580930775, -0.01613905918366633, -0.012611434954982105, 0.022574194635743883, -0.11867940720723805, -0.0650602961245088, -0.0295488962478491, 0.029524331900140564, -0.00747381341996787, 0.004461964899921384, -0.013816598867450217, 0.05669371172033176, -0.08438786758547372, 0.028373625728908905, -0.007790441103254348, -0.006680605581868659, 0.05560027166914043, -0.016275200920206793, 0.012938668371296818, 0.00442366458415571, 0.023357072710101182, 0.02916399961163951, 0.02897186943525073, 0.028473935348962736, 0.004950786564133007, 0.06023090203102264, -0.015521590589718061, 0.06648096624644924, -0.05892457848136256, -0.04671397894810749, 0.032408616617918, 0.0034471068734804556, -0.013265325689144023, 0.0284101249743957, 0.010625509616485153, -0.026533586945252607, 0.030482215107421346, -0.023918033129642614, 0.04461117518361812, 0.00860808370227819, 0.0014724019142868298, 0.013304240581037215, -0.07588921112449808, -0.0635591489496386, 0.04426785377890631, 0.014256040529678255, 0.030103599873989813, -0.02707750692392046, 0.12198486334955382, 0.0045350652867659595, -0.007755453006470753, -0.03338693587962433, 0.026828090596662996, 0.011772310252002517, 0.03318705351079543, -0.021005990586311814, -0.007764445003558403, -0.06070586879155329, -0.021228500761955132, 0.020052864653847605, -0.03431398231611724, -0.055466618881560195, 0.04348496298300957, -0.048791337164585884, -0.1025054323482305, 0.026028641427574908, 0.07861321054202745, 0.02436744714338096, -0.034444236255652495, -0.02658787551911231, -0.0863122246172386, -0.04221252070678788, -0.030628208529215675, -0.02795265649804956, -0.036744194156772395, -0.0029733440946474827, 0.014182499060668721, -0.027096696002347136, -0.01955935197851478, -0.029805365151738303, -0.0017002355392422791, 0.017609924045521173, 0.009097296826775977, 0.035003543732732595, 0.007390953666821562, 0.014410599329923572, -0.07135489994474095, -0.004482632206817749, -0.048832086099846385, -0.0794737084320729, 0.041562411411224895, 0.05395199772927225, 0.0024537849468786806, -0.007079183019076193, 0.02149828085982703, -0.023932859930340392, 0.029696314961874155, -0.019944105994020623, -0.06665899851505394, 0.02155863624413472, 0.00554479186538963, 0.09004260228033957, 0.04519154230735961, -0.030462992672152, 0.05180221511724183, -0.008925330827583207, 0.033462012391211514, -0.06043171221265105, 0.003299508289519953, -0.024742735739800823, -0.024265645907285024, -0.023541378616549966, 0.0035950794659606053, -0.0010892905970112368, 0.008194065942957808, -0.010661620933717898, -0.005961813999514702, 0.041329536006644414, 0.02621126557586658, -0.02722355951229977, 0.017951661455334972, 0.007133286075853103, -0.0385288920513086, -0.03576711970800865, 0.03364422207889687, -0.019045393322122166, 0.019848820273767016, -0.04289872429871004, 0.012310735753693526, 0.005792235050515846, -0.018935523435865638, 0.07034009032319251, 0.008838594322701602, -0.03797859653063005, -0.05925357728336506, -0.001306387071014475, 0.10492047881655847, -0.03240117160036297, -0.061998907032073065, -0.08778987297030495, -0.02807529699648541, 0.010853538465475675, -0.06696616972483203, 0.009927449483333375, 0.03921687791322064, -0.04192811769338521, -0.02344606086747005, 0.0005101439483931221, 0.09148301225664965, -0.08291920080112636, -0.04303164772474933, -0.030288717383986117, 0.02752708619374473, -0.028557619774753656, 0.041183987351903456, 0.0022680149253828967, 0.006520775061965206, -0.0500899710932898, 0.049080664402325676, 0.08597110625190044, -0.04464656766439832, 0.04235284955871175, 0.03859067712889739, -0.03653036630680411, -0.036593816016300386, 0.05867719208113912, 0.043441976152158786, 0.11252625554561958, -0.0803316083023965, 0.016163059674098118, -0.057224076562717774, 0.004989723049558106, 0.053515605437822134, 0.058104390924978516, 0.03234820289753687, -0.02409423476048081, -0.026141169169735103, 0.00950084529194289, 0.008652171170743048, 0.04692500733214613, -0.01616235744583146, -0.04279634921238379, -0.019960174883208403, -0.0359342071118086, 0.0186620949394002, 0.042353030269229604, 0.060007633854317004, 0.017891054257207824, 0.08153361729733175, 0.010140890972992162, -0.008826121101462378, -0.06391456381772617, -0.06492950365394982, 0.06142078046124491, 0.03802036712171643, -0.05018107239075958, 0.03925963048362318, -0.04520816911214748, -0.06961548932314553, 0.03389293030379843, 0.014285075686157096, -0.008934914878023342, 0.04122089435220418, 0.017553407234696606, -0.029661946618078305, -0.029361752759458088, -0.0255447355866655, 0.022408232007772397, 0.0401254473281955, 0.03525703632902628, -0.025149636631661188, -0.049422927783463834, 0.004286047878796552, -0.03736821910421958, 0.009059714400782267, -0.02956038967572801, 0.017899503607769054, -0.02933197526908458, -0.05036657629434912, -0.031040371126785524, 0.019224674820210116, -0.06281544802266335, -0.03183136214031653, -0.012699336923651095, 0.013767096690955627, -0.05159086582090126, 0.00231982959191743, -0.07078070668039291, -0.011289732414940619, -0.0068747718040159415, -0.011849483482452225, -0.04628648430815658, 0.010638720152166792, 0.015654962377757795, 0.017904175969394278, 0.020591535859329078, -0.026749703779366394, 0.020712849967610584, -0.09585677758778245, -0.0363495028937473, 0.04917723714844226, 0.034801707995452125, -0.05801268047499492, 0.003763605768509588, 0.01665594241387496, -0.102628680390444, 0.016736327827909698, 0.016576327202569435, -0.04579962863990181, -0.006398466149770445, -0.0033444179038290243, 0.03365544999863902, -0.04317664644341084, 0.01162861990293153, 0.05784101491069133, -0.039873036666339366, -0.002675103277105225, -0.02406855527453899, -0.042970968249265676, 0.010307593437952275, -0.08332803940516689, -0.028396513231167257, -0.021967071910605804, 0.0023381180539365914, -0.004978342794003321, -0.014975117479941303, 0.024197721205779378, 0.006441646801421892, 0.017164784848507114, -0.01975867754242059, -0.02928134963800025, 0.03202478329537473, 0.014418245817336646, -0.04448096518706316, 0.00228682632436505, -0.03630774092453637, -0.03522922806258802, 0.004429305738104023, -0.011880523489182943, -0.08985029056034127, 0.024143320537081972, 8.232222778826072e-05, -0.06538300732489473, 0.020464910220215838, -0.01539408003993597, 0.01712335285648694, -0.037146939129129496, -0.07104130491331326, -0.009654731991023941, -0.026289215554348093, -0.016774379632147028, 0.02207541874357615, 0.027715480676513925, -0.0191071297725165, -0.032499302416296214, 0.06119149585556995, -0.0724085750174145, 0.08392206403851826, 0.0001623910893392702, -0.00027937282378232996, 0.026977782154036345, -0.02099241976593892, 0.05269893756821576, 0.03023288668719442, 0.055846154635670796], [0.01847591964772123, -0.052478259229822764, -0.01177770716145123, -0.017344921784764693, -0.042534989720488456, 0.015800223858389813, -0.030696846364831065, 0.015968918130075033, 0.007167323438329684, 0.016951830593205437, -0.0030385486847568795, 0.030282104120523682, 0.053497691152133924, 0.03688194581905761, 0.008797671004105776, 0.08978987280106694, -0.040953626085206224, 0.05682239854745321, -0.028087929203024203, 0.06077220026122397, 0.036454190527620584, 0.02930609050330396, 0.0383047842200255, 0.03843722883795721, -0.040984761842459014, 0.0036044790620933264, -0.031227247393986975, 0.025072675585157973, 0.02509117946732951, 0.015813255211680886, 0.0004744917324775349, 0.016737842439691848, -0.03129387556414345, 0.0032745964864251114, 0.03383345554113347, -0.018983915293298882, 0.05325141057180259, -0.04336819276504147, -0.02879729157451907, -0.0064709012745779925, -0.02781331410366627, -0.005389829703646532, 0.04905882682801214, 0.06666243281879486, -0.027093232951239662, -0.002389419383911872, 0.029102070686955975, 0.04942516158587002, -0.05743594695088625, -0.0028821352210470375, -0.03261338232825086, 0.11784527407389146, -0.06954921005520553, 0.02097834293557391, -0.03395740782249901, 0.061953765705859934, 0.031103722306766016, -0.0009053204196467859, 0.01317330726474392, 0.008396178819893177, -0.016014022906854487, -0.019987179609861117, 0.02499864219390297, -0.03799990994458066, -0.06297680659659395, -0.005183004609987782, 0.02683837084859693, -0.011668203520915948, 0.052998859278267245, 0.041435779431321464, -0.03520151099695191, 0.052514353435974895, 0.027968957641174574, -0.06472934599257052, -0.06178795667241675, 0.05731078536883971, 0.04415083382036453, 0.026467455470854787, 0.03471133589298896, -0.0011629605505552938, -0.00727154371887869, 0.029785015037948386, 0.018442076848681505, 0.048897760149392414, 0.0019983656866596317, 0.03551662284080783, 0.022539195226921757, -0.03532237115729243, -0.017959640501739385, 0.023269150875231674, -0.021784799022755656, -0.01996954227198103, -0.05379988665592784, 0.01695155361421683, -0.017778555881486403, 0.005186564379471027, 0.0461640577254586, 0.020576678129355274, -0.032105842705928235, 0.04502183955447782, -0.014730677970380919, -0.04960071962738239, -0.04446255464596174, -0.007586830038233821, 0.037630501554980766, 0.002812355231450175, 0.029848261709654846, 0.03735384095544091, 0.03218093103925053, 0.008436998640367734, -0.0589814995986372, 0.08036943344305354, -0.043401075322117205, 0.021012470069522542, 0.015086520765769603, -0.051196100920121515, 0.02273235601798004, 0.00019089115215533998, 0.008616873131928202, 0.07849499562244097, 0.060684287286564796, 0.007242842271015746, -0.009350448394527758, -0.10584545815773708, -0.020658959174694305, -0.03113697167479134, -0.031228601879216018, -0.012373751784712847, -0.027945023172247518, 0.026416957541603846, 0.03401524088537169, -0.04945491083382333, -0.05194464166870353, -0.05913962565195222, 0.008452353085902628, 0.0024394489953923947, 0.013922969046860051, -0.0028768970016363835, -0.08280381142093378, -0.005189221390788762, 0.043785159185668845, -0.021275594960070577, -0.0050716862866799954, 0.01707771360436472, -0.04927863237107871, -0.008074369151399152, 0.020801561120139315, -0.09468143799381266, -0.007317473977242845, -0.044265691456107696, -0.10392891663229079, -0.0833826702876857, 0.013699904915739466, -0.0024684238063245436, -0.03100396237876725, -0.02053644981225303, 0.038612929198180004, -0.05436532350340126, -0.04412328252533792, -0.033432562013428285, 0.010530731846652113, -0.07445591545232762, -0.013582777387215932, 0.03935503009380704, -0.004772423414758965, 0.01201597466354311, 0.03345937853978971, -0.03244096796135866, -0.06956834227106903, 0.0030158119987694553, -0.032898477489193376, -0.016682708149492596, 0.03983096266905728, 0.027994943032768824, -0.013065591760754135, 0.00033671010260903487, -0.03139560195951148, 0.03995308138240299, 0.023992625190943556, 0.033101660795410465, 0.01604218343970543, 0.006402982327971774, 0.01491106551570472, -0.016410270791293608, -0.024699387336988437, 0.021648928184395348, -6.6829637400345805e-06, 0.013974296008779192, 0.012324694657591125, -0.041252897492165735, 0.0425455281139872, -0.06251857393501957, -0.05302096524192049, -0.056699039511992615, -0.015609133327230013, -0.00747855109708135, -0.009251027629387813, -0.08124073588269713, -0.04535204023199608, -0.02098766192370622, -0.019787731779133254, -0.01346926964655955, -0.03524411613814701, 0.0736735979225301, 0.0220777568497627, -0.008365272635337142, -0.08087314990929632, 0.03414781786545109, -0.02221033878686053, -0.03173457134457417, 0.03768880328546767, -0.0686217576239485, -0.0352332501946372, -0.015779325087548098, -0.027879058740824792, -0.026720194647673244, 0.05990106978546176, 0.0630365136533899, 0.009866051090393234, 0.05146178280318079, -0.022666379805350984, -0.027664776855970605, 0.06695350393087762, -0.046440980107447766, -0.02331588588095593, -0.06482843203568539, -0.01401034024158649, 0.04008491458610177, -0.022305805278496495, 0.07172757136520955, -0.0659261513601854, 0.010839224887336824, 0.028025132417376416, -0.018900335270995574, -0.021467589839412885, -0.025609874629764138, -0.014743077528004023, -0.06129934579646263, -0.06125287190702562, 0.015493976527763098, 0.023109245843696172, -0.00282875769704419, 0.013850825703681152, -0.07262283016391026, 0.0037267103990018535, 0.017076004745090655, 0.016116510269026708, -0.0028633852846510653, 0.05800855997249847, -0.048435441673331456, -0.04087722486420639, -0.008391158269393099, 0.0012697484520937613, -0.02236115600845473, 0.028907426099648297, 0.008508947180757627, 0.058950776374452236, -0.003419222649331532, 0.043620998768053136, 0.0014584498801668557, -0.028723723242138247, -0.038542311868034924, 0.02703098526685957, -0.09568307768699262, 0.013976597629164889, -0.03415438829376341, 0.054494632166325205, 0.008817276380903577, 0.021505306927241098, 0.02719545904685294, -0.035433027920850894, -0.006741378144257938, -0.004192215420322682, 0.03136232872024467, -0.007671386121853788, -0.020332769375878756, -0.010569242939576158, 0.020234860270357473, -0.00742302354654732, -0.03953357344081744, -0.035609759838440724, -0.05014365141441643, -0.005635957600878841, -0.044802253855986, -0.031053428963223387, -0.013448355938411758, -0.060303148703156624, -0.034955037133417265, 0.013057999306162976, -0.07116726663936418, -0.05590653178307747, -0.045106000168046556, 0.02986313672320169, -0.038393681457972444, 0.008082586202939786, 0.049317997475188176, 0.0624910650771871, 0.025228939205493087, 0.013921530913814331, -0.03209534407861199, 0.018852258328536015, 0.02421205192326756, 0.07513773904418171, -0.008811168367389747, -0.043240620751388056, -0.003200536715915113, -0.01761903810248708, -0.028985497627241206, 0.044360340108996546, 0.03424294910079725, 0.02652012997249375, -0.010140817784646441, -0.05323782322023221, -0.002502795567792222, -0.012362272025396904, -0.01768493411702858, -0.0002315015632301123, -0.00825908713296672, -0.05270235436127048, -0.044812461746020896, -0.026033322654378497, 0.039014794829278956, 0.03711550971278981, 0.04782533493451702, -0.03202877079142751, 0.027057342522210984, -0.06347785967679093, -0.058846468935924025, -0.05224163533348041, 0.04346341879853339, 0.021383743079491188, 0.014199053040788043, 0.01525358901773909, 0.05381254904569911, 0.05222607889143764, -0.04809523060875627, -0.006441201827309513, 0.002788276474817385, 0.06254824579584946, 0.07716922204315589, 0.022392015196947345, -0.0600438921400445, 0.008371696072819929, -0.031038337974670083, 0.01286500008977777, 0.044033480751819024, -0.02762666541008569, 0.06029574583278099, 0.08585828387384893, -0.024483886161307776, 0.08340374201204644, 0.02139483057921281, 0.08537780657422295, 0.015755601119892968, -0.022692568138288, -0.06503610684108492, 0.030972999039894228, -0.03605876703470868, -0.09521343342875163, -0.020309859030086832, -0.03522454343765142, 0.02736045484290978, 0.0477018743921899, 0.03075966224233936, -0.09548624182337405, 0.0464441657747106, 0.04758187461626026, -0.023018955740900727, -0.02049003667463333, 0.03205498090073494, 0.008738865349140123, -0.056921168194296524, -0.0009806535458284232, 0.050404773924620436, 0.026428736773344928, 0.025796288313157004, -0.002985629940070048, 0.0074784874999056315, -0.050985734572655275, -0.006902059382381373, 0.04654680472466569, -0.003951098913258356, 0.041065514554302844, 0.10901143170556642, 0.01210494850347971, -0.0351714064962646, 0.05986426959908727, 0.021723315146950358, -0.0038543668160119296, 0.03144427876258467, 0.05041734356791585, -0.026886560833484747, -0.00266725607418806, 0.06920136634802082, -0.022574841843710832, 0.02240157208031512, -0.03266337177181008, -0.005338893931091693, 0.019864590849668823, 0.002814605582169607, -0.08225794377026022, 0.012890475204906843, -0.003896948595261475, 0.00793677584526751, 0.04785754577438095, 0.019468596174676393, -0.04626035952573845, 0.03285512187549838, -0.04425331574087797, -0.1252679328082452, 0.055829839672599635, 0.047535485633537655, 0.04273723090440491, 0.005616672368846184, -0.01814758381514241, -0.003538519775119202, 0.004149276629022441, -0.08892124484336904, 0.01715678442562932, -0.02802769788009811, 0.025925849843049423, -0.020617868312903128, -0.0021675952906873236, -0.06025267383197686, 0.04746746828389329, 0.005634980254583375, 0.014826302326304278, -0.0327148270263272, -0.07072853397929238, 0.009122412382668154, -0.025562755225488034, 0.0060140056000820615, -0.0020840581571855846, 0.02875383743680519, -0.01044671142055886, -0.0074635468423068715, 0.02842132199142843, -0.0017068221118150951, -0.14349814025977564, -0.026925366025402846, -0.0578698784797573, 0.05435780525682529, 0.052918177641472185, -0.015180336278393932, -0.017568849989574534, -0.014885203933275623, 0.06604347559288898, -0.02626576846289797, -0.01919798626035963, 0.021687721489274784, -0.03602753555276533, 0.024296273287823182, 0.0029034052393889487, -0.02493022837736264, -0.008055827514058015, 0.004188071133209686, 0.011357284950961067, 0.025562054313483695, -0.008535113647994535, 0.0015451355154710797, -0.0072614939032160375, -0.0030233278851263, 0.007393291840812016, 0.02655630042171067, 0.00508270727909409, 0.0656376225917679, -0.035100917073293394, 0.021029095074793117, -0.021165654176018955, 0.01829656031539414, -0.0016712366060866763, -0.05048224393760614, -0.011790219197118602, -0.024562723128231923, -0.04640076596873729, 0.03723134263060246, 0.04141939053988543, 0.002006468547796516, -0.03949508635296279, -0.011852807779501382, -0.020044297489957327, -0.005129308943058927, 0.027395817422707407, 0.08455785156261988, 0.029266205733288413, 0.027957391032254964, 0.07016972710245328, -0.017732344281585006, 0.0890399412131214, -0.036513710819416983, 0.01675163460534433, -0.023628352776058743, -0.015996676597651187, 0.07189986976586087, -0.060796128979669524, 0.014446579411787891, 0.05573248730276809, 0.03968828090932622, 0.02145031417502071, -0.030708735171598115, -0.0677302539106052, 0.016414374889352927, -0.02651691334378504, 0.054672481346542616, 0.0370132241508035, 0.027672629017033906, 0.012632214062127741, -0.012748229318104496, 0.06264831036241583, -0.016933321476875585, 0.01557514790824206, -0.08015744472111988, -0.03571660597866561, 0.013458285249274775, -0.012154337243149238, -0.059209509225111784, 0.021301657616099756, 0.0011637911260744505, -0.04183170487028433, 0.08035363723139054, -0.006994966880197877, -0.0013211736904914576, -0.009206810504455014, 0.012217581714010686, 0.03496469479201632, -0.04153220011516578, 0.031753881268336115, -0.007578046567852785, -0.06277449782725043, 0.017603868118378226, -0.003501078655951847, 0.036851081352113325, -0.018826075518417005, 0.0422449657733104, 0.05663245098561644, -0.0115038399489259, 0.05200294758358689, 0.00033523264941497593, -0.00714366220898436, -0.02030645176773933, 0.014706174416976784, -0.01796025954805083, -0.010523414497955012, -0.08285784133795886, -0.04165915720725926, -0.03157066115157871, 0.00420697132963965, 0.029806415240376243, -0.001978800302622615, -0.07764369265058199, 0.05902597728639522, 0.04676358433304792, 0.031992264302578274, 0.09080930214403035, 0.006338245032767717, -0.01085798565721254, -0.008771799215039984, -0.017600664543165136, -0.027871420494174393, 0.06751654659718588, -0.003082659368166802, -0.0365677077714015, -0.008483247397901688, -0.0008735980332348698, 0.012629209106208447, -0.005061579469412236, 0.024444260427144277, -0.08330657044193163, 0.06128844939671034, -0.01469237540936172, 0.0383132674687887, -0.03506129639566447, 0.06211585360368495, 0.006454715810005602, 0.009634155276674508, -0.03928503444275565, 0.03075937406752816, 0.020985912097769604, -0.045392368340731355, -0.014826991521954073, -0.04472057007723722, -0.09219902360956997, 0.03521553086810472, 0.01818332309088373, 0.02065075509342831, 0.019869745816532655, 0.08100392283651993, -0.11666427443286946, 0.01686133644707554, -0.056263607947544245, -0.004437685595286258, 0.034212423619233594, 0.04399826319179037, -0.06114121515631718, 0.036543593393087756, 0.00737816562865577, -0.053111733786079286, 0.03920664489986184, 0.03990641509896009, 0.022962751481641057, 0.007632589369669521, -0.026371405174024826, -0.0019645303287548917, -0.003347650506482515, 0.01822800295908085, 0.04641774432173329, 0.012930722894629706, -0.012358698580361318, 0.011922674144800837, -0.034248375534414385, -0.03160766426595337, -0.0409570341227661, -0.009374915384653864, 0.032192687465706984, -0.03618297500000227, 0.026786737032448424, -0.009696369630693175], [-0.017106489091471968, 0.09246645131307704, -0.06929752019843947, -0.054821044268904835, 0.03426273414670782, 0.011798336958599302, -0.03442700615227667, 0.039251504121003436, -0.009849566922243123, -0.037020472032176906, 0.0034299791688928824, -0.07751979399815485, 0.023490230572806806, 0.06831952655356091, 0.0036261830951135514, -0.08861655501488348, 0.02409454360809639, 0.009966248612749019, -0.020914606196222256, 0.08267391351793969, -0.00403387477502217, -0.030910348246758614, -0.02503861286087069, 0.024414412638885982, -0.017148270502397107, 0.10058347439281222, -0.05452516336882438, -0.06202059962782583, -0.04878987521399344, 0.02205739994159321, 0.01232651669003807, 0.03881240435708277, -0.05423147486148507, -0.08908910680072275, 0.02060739247301939, -0.014336559059403686, -0.006809808069918852, 0.027997224849327443, 0.025144349288397903, -0.015047918199434797, 0.0265825788258994, 0.024492878867619864, -0.03232818992214869, 0.0102680006566429, 0.03633060274676226, -0.032476777410673785, 0.008686885328303792, 0.044269416369059254, -0.08486402358338067, -0.012573981272233163, -0.01600015916396723, 0.004489066610478025, 0.05124629386271524, -0.036897664086045126, 0.04356678309422381, 0.03347768032055979, -0.039348299351244106, 0.006250318536278407, -0.004245203829676733, -0.017371268643897715, -0.07612308683732322, 0.009135882244630496, 0.04093802574120133, 0.006711338627990638, 0.029136266885297815, 0.056266276005487136, -0.05031268514378314, -0.02335615197292135, -0.020746617817037846, -0.006679246541846775, 0.0599730104860967, -0.05811382491965942, -0.05433746409914986, 0.005422280247910562, 0.058326686051168516, -0.027906319410898456, -0.03610917155486094, 0.011967715819500957, 0.0016875356721119744, 0.00880591448893923, -0.032835011698469925, 0.01780056460433269, -0.029676612910224744, -0.0197361154100626, 0.09377310053225082, 0.014333222340526188, 0.040061813850616725, 0.08311297561070209, -0.010502582971533536, 0.03479943034388695, -0.07038988952250055, 0.011884909320562301, -0.04493424969982223, 0.02047744304978221, 0.012773436860209972, -0.008250405865625988, 0.07202142708941707, -0.05050086147860955, 0.006974547780420008, -0.019853504324480537, 0.0024789259562073207, 0.03697187515296484, -0.001106478505509803, 0.023691351190373754, -0.003618503986926171, -0.05299009240511391, -0.0212217820529892, 0.02877829008688343, 0.03931571124086981, 0.06581723215836174, -0.025019314908241757, 0.004836502946509618, -0.029156584684232444, -0.012521764536641918, 0.005067507899076033, -0.05167634215025807, 0.014259504007481369, 0.007645472272207043, 0.0876058542246515, 0.0037962242594945165, -0.05981860895029869, -0.07465526167710644, -0.008932734416504124, -0.01656099685691861, 0.004810395146030471, -0.0251429285865317, 0.017276374724527744, 0.0432934126012037, -0.04554037774753274, 0.014847404410464629, -0.01084432356741152, 0.006338433827562939, 0.012162628661307573, 0.023017654117406642, -0.009562710260717545, 0.010849714427356107, -0.03606643838060892, -0.04395149777198257, -0.05753575842574647, 0.006483349405410732, -0.05345996114402679, 0.0017078656908275098, -0.03135179419781559, -0.08397640129305303, 0.05681867214047049, -0.05523018474365839, 0.05768955001192628, -0.022001130720965597, -0.05021445000675258, -0.010567452356106675, 0.03895105393913201, -0.08232989639257365, -0.00080197590100516, 0.021666884813145902, -0.01118717789390389, -0.0014948743210445984, -0.0036643376820404538, -0.04903766275454101, -0.007259589060527258, -0.021410405231716806, 0.047275706034505115, 0.026841135253871246, -0.005059084228120669, 0.013479327572767399, 0.04096692275083174, 0.04466120887430659, 0.029404650932208492, 0.002353212719233305, 0.004618071740773039, 0.013484311224782237, -0.028836160042815494, 0.0071418280301483806, 0.05146411082304719, 0.07448002453947873, -0.0824747682699732, -0.15974768038171816, -0.08749515703215256, 0.041943236946265554, 0.03276917471874453, 0.05637628042483829, 0.013493488590156654, -0.010968757672376163, 0.024328438318516093, -0.013122189077806585, 0.10163586130949341, -0.01000660272972075, 0.0074575258073127995, -0.006915887526818046, -0.046386355514266786, -0.02618536426899136, -0.03900726343418228, -0.021414790943058374, -0.0024782330012197667, 0.04855727299542671, 0.004483223742288531, -0.050523557683975595, -0.032360579984544474, 0.06212906596271631, -0.036403043304565945, -0.006838895931335687, 0.020953517384233906, 0.03332756108931138, 0.016888557626116903, 0.034496115337788506, 0.07496548648372445, 0.004866120458788335, 0.03314436730886968, -0.02439923409151314, 0.004870243269814275, -0.03067027309816748, 0.021276224243295533, 0.028054234258199296, -0.04614759932209852, 0.023369709973255437, -0.021638485165554517, -0.05082547613338167, 0.03669235787864077, 0.01837555107966413, 0.0926821012568538, -0.050496068343553635, 0.033723683440195724, 0.021000947752738273, -0.010247525926579501, 0.06534489539829265, 0.004232543176993171, -0.009061581346024068, -0.04038247416805203, -0.02482387788003839, -0.0037147668564038636, 0.04444859022107921, 0.0061985053632984686, 0.01749729702756538, 0.02186636482134743, -0.04736513450523002, -0.05329969516975043, 0.02265549647606338, 0.003294895531009878, -0.022991731776198003, -0.0014774479975473629, -0.05889052535917119, -0.005342231585237763, -0.060646032563503156, 0.0473519634049632, -0.04607591263175696, -0.09073917799991969, -0.036723658008622, 0.011058475844495763, -0.021915763689785976, 0.006802125824988871, 0.029549311373032076, 0.015027627431864636, -0.006248011605246614, -0.07263318369460349, -0.03963635843406229, 0.02949519237190329, -0.0012266735300529175, 0.014488620640220563, -0.026725748347099305, -0.015460096595476341, -0.0350308893442019, 0.0017351736804197587, -0.04550099488952265, -0.0754765479996915, 0.017266576261289947, 0.003567569107142453, -0.003012571032792429, 0.013237853143280675, 0.005834695055656947, -0.088099849512622, -0.022285392060334624, -0.05968309093203426, -0.0828492343326638, -0.01356912389333316, -0.023516729383334156, 0.04395906088681989, 0.06480110569529056, 0.0028787485478460706, -0.05527884107330012, -0.016478512898703102, 0.04464682892806825, 0.054846097541135404, -0.0248609808172122, -0.11004453654476737, 0.04964249638135229, -0.04117641836576103, -0.04237957562578832, -0.07207273132918553, -0.03661623575984963, 0.021291870929187717, 0.014794235387314043, 0.0027151566380707666, 0.02878628361958567, -0.031106388384480276, 0.016938510873229253, 0.01993932783188088, -0.009389562416573004, -0.029667686024463378, 0.015875502486391014, 0.034786381982310675, -0.0774017503216281, 0.0026448772504681787, 0.04456341734930537, -0.0014684680262632486, -0.06939785744526927, 0.050140947734588284, -0.045583893488306194, -0.006685686165369146, -0.036516615372047256, 0.024774519503988856, 0.002399881364734244, -0.02063759481380489, -0.025853382911318893, -0.05953800603665884, -0.006635973444009676, -0.059054130974099846, 0.025789105620263687, 0.08804266556572993, 0.053747119400459994, 0.041762677449731264, 0.03584781933849577, -0.03938312004935629, 0.03969650106091345, -0.04559450838072502, 0.03757603922599603, -0.002922550882759339, 0.0032642028571330827, -0.008344690253874886, -0.010847821750142116, 0.04994694239600924, 0.04833601700598504, -0.019812048162114827, 0.011946453910883911, 0.02579649723941533, 0.06941444909718021, -0.023122028534532834, 0.03559962757252613, -0.027424414637365606, 0.04165182897479173, 0.0006516405824801876, 0.014021633851978329, -0.071126721078102, -0.0038511143499928625, -0.03880172737038197, -0.024044099692056575, -0.11757050292003254, -0.01017188051347967, -0.04241605934902166, 0.04673498497495635, -0.06036148062340712, -0.07830027784087192, 0.04451633223837495, 0.00947850607802361, 0.037397172405795445, -0.018231927045926653, 0.044669828127924874, -0.015521752887395707, -0.01514109824041767, 0.027399499564208812, -0.012557885029409412, -0.00010843816906396786, -0.1622051236368254, 0.04271460101565217, 0.007354726811330252, 0.03011293824579695, 0.013735335078309778, -0.011011315461733725, -0.014598342549047896, 0.034139050440152606, 0.022731394574363423, 0.01638064386476922, 0.03476599185637738, 0.01986988103705314, 0.051383644776451805, -0.008292534049667061, -0.034013621609040874, -0.02733779951280281, -0.00044722655210431724, 0.003371317308248953, -0.07745376039579925, -0.04888252272711675, -0.006433465784583381, 0.03188464719665572, 0.027845201774277812, 0.02231119734245113, 0.0032521627914727097, 0.001019942362633252, 0.006237371237152772, 0.055666593406289794, 0.0053635004418101295, 0.04051638075695612, -0.04086414587289346, -0.028072543739702506, 0.0013079114058910698, 0.0242965150622594, 0.02746862307404576, -0.055680891484033344, -0.027769964288357228, 0.034951244372897705, -0.01408602934770544, 0.050843636790770155, -0.057363211116591165, 0.03212616306925026, -0.03537040607798675, 0.03766294381907646, 0.02768730085832702, -0.011439226026591236, 0.07135243474116444, -0.053092913003671735, 0.01744567567453689, 0.058915507128927694, -0.00961839433014967, -0.04242797237147605, -0.04102846095994796, -0.0024692872211350865, 0.07804462745100713, 0.001736217804407533, -0.019206946836686757, 0.07516110791961497, 0.007308103433493582, -0.046949570870482, 0.08592743694667197, 0.04595731448992532, 0.04511152256605947, 0.026202060067547047, -0.0353304515249006, -0.014363639570346424, -0.03898815339658533, 0.017764956967214796, -0.059501752243934294, 0.055011839053992456, 0.03676110373044946, -0.020829118566552608, 0.00038709828390053264, 0.04412761386127994, -0.00419279029070889, 0.025354963722028865, -0.010691316497395104, -0.05669619870970029, -0.030505657140307535, 0.02515824949509851, 0.008635346636940064, -0.03395138745327965, -0.09963715401032834, 0.015350258105037847, 0.028527211557826993, -0.03333299764826888, 0.016526567312301062, 0.09927830229061384, -0.04578870615865301, -0.007043448438872301, 0.050714876099340986, -0.0027809175672832386, -0.03960671498937709, -0.01672493768616866, 0.0675606475265376, -0.064038135115104, 0.016739189097661422, -0.07049176366292444, 0.03323789584411612, 0.005095331714192364, 0.04246213216834394, 0.001335245196800457, 0.014823269095696298, -0.01937263135081988, -0.10335993608593436, -0.03502587422850118, -0.03963262823272793, 0.0037052531858508416, 0.002584775996102246, -0.04468981421011481, 0.029417907642814437, 0.06056459354555491, 0.07092938587380944, 0.005181277541840044, -0.04770445860211271, 0.021435076792954814, 0.012439568252166688, 0.06743634282208193, -0.00583436344177759, -0.025408223200122, -0.03493192494867797, -0.04875804709720646, 0.009042506490212472, 0.025260704489704106, 0.01370652578538864, -0.03657954917937647, 0.027811665923526747, -0.04949598387292804, 0.018211692927570026, 0.0009550774164808315, 0.007976646999108586, 0.02791614163743834, 0.040295994351459, -0.058128798614587675, 0.009608167749704778, 0.04401805296356945, 0.02300039589220279, 0.05498112638917752, 0.04615460020838043, -0.008342335753337938, -0.0712760131677631, 0.029197512549890774, 0.10851967457902026, -0.13623774372979555, -0.028054990108850382, 0.01697931271512864, -0.058242788075099, -0.07319795774693821, 0.057276779312719, 0.04217151302836933, 0.0413036040450955, -0.030683736189836157, 0.03277832864677464, -0.05229058401917898, -0.028889337866698797, -0.033025686380589454, -0.04047251914646863, 0.016329379517821364, -0.01824780637494674, -0.035598039366692126, 0.06903451125611111, 0.05229458682045531, -0.03685418839493218, -0.005093402572582792, -0.009195160980266532, 0.01726487116564638, -0.04269394564076907, 0.04726053507693887, 0.021700199763062065, 0.002494176382003968, -0.026088605374015295, -0.011070360042359574, -0.007313182622419451, -0.02937072058508759, -0.0018115377607852733, 0.09831809333745457, 0.019036287736958587, -0.05582121202586045, 0.03920821058948533, -0.04081636871451328, 0.025268582161590773, 0.024271396958909217, 0.02607971044514393, 0.015424019377922751, -0.026416280896747614, -0.022721904447061167, 0.07494263908257208, 0.012427656306078656, -0.008952324014099424, -0.022874144946100176, -0.05949386131950668, 0.05046110252408111, -0.05596269693534152, -0.012376085775640346, -0.0156773360648646, -0.025916352535490815, 0.01727636445033878, -0.02370215065610018, -0.007506862162771099, 0.014721334683494876, 0.013970384351767267, 0.01126917613934005, -0.013844673880720025, 0.01191786458673466, 0.012544067107798857, 0.013718341208298958, -0.05525913628312825, 0.04071639890062937, -0.005124631185972011, 0.035019577220691114, 0.02220218918449147, -0.043605368016265814, 0.03566605044572478, 0.0867206936009061, 0.0508968830623964, 0.0872654328102624, 0.020135411629129546, 0.01325571092165536, -0.019304611720620528, -0.04957548353380989, -0.012673252898051499, -0.020735130292244983, 0.026261720608609672, -0.04409930815880071, -0.10957986723132591, 0.02720288202071468, -0.010882241961945817, 0.010234512927987664, -0.02549018992507273, 0.03878973140005304, -0.05762988943047528, -0.0023542282074502955, 0.05005804166819481, -0.02841937546805503, -0.04465318251076394, 0.005650618930406287, 0.04189195963218414, -0.03992836696080496, 0.032606542350337, 0.019662256702580126, 0.030755476790493938, -0.005555619214056302, 0.003864210559429428, 0.02105204419537867, -0.078480007165703, -0.022132344979090217, 0.021926768293926924, 0.0046283194398136504, -0.03859222793588662, 0.03134931677876248, -0.030860073879064046, -0.033786937764371916, -0.014280065436137973, -0.04413893519666297, 0.0534495845356366, 0.005418633610295661, -0.027211706134403393], [0.02850791568555856, 0.02164713027196162, 0.024655541827734637, -0.03044060511596425, 0.006413308537222737, 0.010722994454352633, -0.03342001753056799, -0.006937483651618752, 0.03712030933699887, 0.02097743773750007, 0.0026857893927122226, -0.028689749649551247, -0.06117819212871194, -0.02205886932109989, 0.09261961586012965, -0.03836421078028386, -0.050822730994840894, 0.037643294130686414, -0.02083825168838327, -0.09926722934067048, 0.045570312677621676, -0.008043478358034425, -0.09248078227616335, 0.00821635013836622, 0.008716683570216198, -0.0026521886475167436, -0.023612971185699456, 0.06308578329232631, -0.032770308541330985, -0.029272262594834137, -0.0013159017756793215, -0.0005240911924239482, 0.027593292995531, 0.03558020245184166, 0.007642424472710128, 0.01553523993002874, -0.003910646458361734, 0.06985563150174885, -0.00031401931491856314, -0.023679770594994685, -0.03334092911946491, -0.04399892639723782, -0.004585579619978588, 0.05753385196299248, -0.022258631375908593, -0.01816110929791724, 0.00797510215304842, 0.014675168428369427, -0.0321212559179141, 0.034947149543969706, 0.021111811247430258, 0.03251039784630187, -0.055606633247899634, -0.04031381151740737, 0.014510897690637624, -0.0108334296192875, -0.09055504660361446, -0.03156905154804012, -0.014853841499266652, 0.05772538849830692, 0.0174175087116833, -0.03875806286630406, 0.033656260499204574, 0.01774501082553574, 0.04549676790110596, 0.06931352769560553, -0.044783685296544896, -0.012043801473282772, -0.03265291744745416, -0.013085890596073908, 0.016670793113036788, -0.0396688911301854, -0.051133978912635845, -0.047125533437947, 0.04568793566534247, 0.015302077132840972, 0.012303758040361042, -0.03141437376443728, -0.12280487101197228, 0.02402011796056805, -0.049010680196085225, -0.010812279665541505, -0.05608349419733862, -0.050034191165949114, 0.011905657597711115, 0.028521486574519223, -0.005689360971315595, -0.045700654520391785, -0.0008559800490389864, -0.03618753585683725, -0.010517756981070764, -0.02197597677883462, 0.021519706921899428, -0.018263497768856767, 0.02583103727585712, -0.005041704165509914, -0.02171885807359299, -0.05980866027441973, -0.0630089842118964, 0.0007585868109862301, -0.02332948238229865, -0.05593021965271375, 0.01120990782153509, -0.10659190265908917, -0.014440608699529466, 0.007612266919807873, -0.03409185880540917, -0.08191848010517011, -0.014374082245083205, 0.0163746626706628, 0.03072396018633564, 0.04002139674692121, 0.004553296178211541, -0.06084272949745848, -0.03910571321661032, -0.013588867364836185, 0.021534730775610203, 0.027384819231347085, 0.014812583790642177, 0.09391730678789938, -0.009010466857908243, 0.028525194692852654, 0.0007952217580512515, 0.005003812642200913, 0.0531885088036048, -0.04160110125903181, -0.029574198449343645, -0.01982863601174601, -0.021358329713725248, -0.05100200753250972, -0.0658903212479567, -0.016762916723462685, -0.04630571982150645, -0.0876490908649757, 0.06598814344778396, -0.11626500961789807, 0.06762294583005846, -0.035204714560646666, -0.01662858858735201, 0.04295887198793506, -0.08191543045803854, 0.08956144885150426, -0.062471330779717164, -0.026258523827604543, 0.0791236473347406, -0.07799045676611324, 0.0062333738232055414, 0.007139824035365442, -0.007882628224598027, 0.020853759136514955, -0.04473225578400249, 0.013267201361374876, -0.017622400627449852, 0.03268793145378487, -0.006115150949494521, 0.04570604027099245, -0.07485557068958341, 0.0887487967965413, -0.029275257012163432, -0.06256965244476956, -0.045441801294548105, -0.03824041861567034, 0.028783829690189295, -0.05814857759754278, -0.046232830172290885, 0.01151154510621593, -0.020810340193658648, -0.03967654713543368, -0.07357910069657778, -0.009265525779125233, 0.02434806506207375, -0.009800985969669235, 0.03078436597229307, -0.04114050093954675, -0.017459505209001785, 0.019668919246464165, -0.028343916045743378, -0.09561704695448627, -0.004944134460006833, -0.10669541734953625, -0.031819832008428105, -0.008991504881397244, -0.029859603495850793, 0.027096608796060295, -0.006057318686282157, 0.013002543546373452, 0.039141611895142196, 0.07539031407153797, -0.010608558851666198, -0.02931650955149456, -0.0412920399703444, 0.04154170286534629, -0.03397423740651599, 0.02940470740372602, 